-0.820094|-1.332131|0.158054|-0.480443|0.206466|-1.342669|-2.120625|-2.354682|1.146334|0.317485|0.984285|-0.525436|1.572509|-1.001314|-0.738745|
-0.727864|-1.257577|0.437450|0.356841|-0.014583|-1.138589|-1.570333|-2.949014|2.015186|-0.254130|0.906841|-0.395696|1.623350|-1.804894|-0.953606|
-1.044659|-1.066477|0.216769|0.260923|0.014684|-0.729338|-2.473864|-2.837749|1.217122|-0.170434|0.458149|-0.720199|2.095822|-1.723053|-0.443356|
-0.923776|-0.895683|0.470326|-0.189678|-0.284392|-1.576012|-2.241504|-2.994377|1.145355|0.312106|1.049389|-0.359051|1.558145|-0.704484|-0.491976|
-0.682622|-1.202669|-0.282291|-0.209061|-0.663411|-0.917837|-2.370943|-2.300512|1.371227|0.557481|0.384668|-0.452023|1.389768|-1.110003|-0.227131|
-0.339627|-1.541772|-0.084328|0.228870|-0.556029|-1.534565|-2.219006|-2.498745|1.668983|0.510938|0.332809|-0.099702|1.302947|-1.309160|-0.307477|
-1.058643|-1.106548|0.306707|-0.004956|-0.523665|-1.287394|-1.876823|-2.267526|1.229606|-0.420153|0.675092|-0.601525|1.175865|-0.841384|-0.317701|
-0.825025|-1.157290|-0.061460|-0.179284|0.009110|-1.377785|-2.480886|-3.231527|1.542675|-0.199539|0.807437|-0.526013|1.243951|-1.672922|-0.831986|
-1.138566|-1.572743|-0.160761|-0.364510|-0.084142|-0.673706|-1.540909|-2.869593|1.777483|-0.293161|0.757217|-0.670844|1.198948|-0.931330|-0.754055|
-0.686653|-1.684998|-0.116251|-0.734333|-0.669080|-1.282789|-1.859204|-2.526732|1.703742|-0.353974|0.915061|0.011367|1.632513|-1.549994|-0.642286|
-0.459355|-1.286743|0.490874|-0.617714|-0.469650|-0.537955|-1.479441|-2.319195|1.773382|-0.376862|0.667030|-0.286711|1.519521|-0.689597|-0.350947|
-0.377100|-1.148356|0.118762|-0.763973|-0.631236|-0.560177|-1.741879|-2.271172|1.761675|0.376368|1.123990|-0.706957|1.256895|-1.305375|-0.157496|
-0.939520|-1.393915|0.429401|0.124344|-0.041907|-0.901687|-2.129523|-3.054823|1.283451|-0.325685|0.578587|-0.798754|2.040726|-1.327565|-0.457353|
-1.259204|-0.996112|0.239793|-0.107636|-0.572048|-1.179446|-1.666599|-3.121655|1.811651|-0.367829|0.670356|-0.063574|1.938056|-0.864121|-0.634788|
-1.286982|-1.348397|0.409619|-0.830969|-0.710997|-0.520927|-1.939439|-2.228266|1.513124|0.192818|0.579367|-0.847335|1.356072|-1.357510|-0.687838|
-0.577999|-1.554709|0.174396|-0.656073|-0.448815|-0.786565|-1.768772|-2.792676|1.405004|-0.334014|0.683840|-0.342602|1.033761|-0.696100|-0.665240|
-1.063053|-1.498137|0.354245|-0.695445|-0.516335|-0.455000|-2.057168|-2.831448|0.915853|0.366413|0.274979|-0.710251|1.172624|-0.778632|-0.288898|
-0.678471|-1.033147|0.448357|-0.407436|0.267425|-0.944753|-2.285794|-2.453474|1.477245|-0.440854|0.787342|0.018353|1.535687|-1.026779|-0.767391|
-1.000654|-1.283143|-0.150558|-0.709482|-0.524097|-1.290225|-1.697133|-2.377487|1.729142|-0.043171|0.285499|0.069133|0.954216|-0.940781|-0.331701|
-1.270429|-1.489094|0.561409|-0.250007|-0.779209|-1.182290|-2.092869|-2.966007|1.817953|-0.116838|0.431352|-0.113110|1.870905|-0.815914|-0.076466|
-1.100672|-1.483384|-0.365325|-0.147212|-0.149073|-1.190990|-2.370745|-2.153392|1.260062|0.123804|0.899841|-0.707320|1.470196|-0.670717|-0.608642|
-0.987024|-1.397311|-0.248100|0.010988|0.159387|-0.869074|-2.498793|-2.218906|1.355956|-0.295996|0.975666|0.180590|1.855524|-1.275460|-0.838193|
-1.109419|-1.547317|0.368082|0.162078|-0.469522|-0.599050|-2.370229|-2.851949|2.007528|-0.241394|0.724542|0.197068|0.990589|-1.464530|-0.052983|
-1.210448|-1.291982|-0.098137|-0.287344|-0.401279|-1.081564|-2.121805|-2.399938|1.266447|0.458225|0.651011|-0.116722|1.375818|-0.734283|-0.273223|
-0.709258|-1.520956|-0.100117|-0.419358|-0.511105|-1.331194|-2.564152|-3.186672|1.236660|-0.556093|0.737956|-0.283927|1.303765|-1.496098|-0.687609|
-1.048203|-1.046606|-0.285510|-0.619706|-0.675937|-0.849899|-2.468261|-2.541833|1.257843|-0.351534|0.955318|-0.548389|1.371022|-1.009727|-0.683445|
-1.130815|-1.539527|-0.364915|-0.503527|-0.191091|-1.093274|-2.571770|-3.378167|1.690265|0.148709|0.460042|-0.143565|1.012412|-1.362425|-0.258475|
-0.376822|-1.328413|-0.355066|-0.529895|-0.047211|-1.577954|-2.746247|-3.196305|1.275891|0.282762|1.225494|-0.469375|1.047697|-0.893678|-0.813673|
-1.325512|-1.581958|-0.528318|-0.533268|-0.256830|-0.863601|-2.725794|-3.189097|1.408284|-0.547067|0.982472|0.118313|1.994087|-0.820351|-0.667054|
-0.740967|-1.293716|0.330377|0.303251|0.161751|-1.021539|-2.561772|-3.300852|1.023944|0.308787|0.420751|0.024936|1.590029|-1.546069|-0.050351|
-1.009831|-1.326546|-0.567842|0.355185|0.001712|-1.024935|-1.803290|-2.733453|1.151384|-0.001454|1.267060|-0.009511|1.156049|-1.028912|0.119355|
-1.351566|-1.040471|-0.541915|0.331214|0.300309|-1.385145|-2.142697|-2.610611|1.234707|-0.107638|0.510077|0.049669|1.804244|-1.372380|-0.756025|
-0.318696|-1.253086|-0.053291|-0.030548|-0.459618|-1.442188|-2.445317|-3.238373|1.202324|0.120908|0.467213|0.161674|1.424863|-1.046186|-0.135711|
-0.964959|-1.182578|0.296882|-0.653651|-0.127103|-0.968596|-2.210167|-2.308419|1.109011|0.142946|0.794456|-0.652497|1.232873|-1.647110|-0.859670|
-1.041536|-1.397821|0.019534|-0.473944|-0.102361|-1.307626|-2.199431|-3.045792|1.884905|0.435657|1.138136|-0.721023|1.749367|-0.850557|-0.584981|
-0.269448|-1.243888|-0.139862|0.051297|-0.539439|-1.007898|-1.513795|-2.523632|1.961014|0.486029|0.432335|-0.518659|1.966360|-1.190134|-0.077073|
-0.133477|-0.805011|0.222906|-0.380585|-0.451680|-1.418361|-1.671833|-2.865377|1.527905|-0.377043|0.514255|-0.472827|1.436396|-1.436822|-0.628726|
-0.889382|-1.115029|0.004025|-0.337986|-0.685217|-1.414251|-2.370221|-3.067990|1.006147|-0.210956|1.354276|-0.931108|1.567450|-1.663203|-0.132872|
-0.802747|-1.652902|0.032913|-0.757870|-0.146632|-1.020858|-2.435601|-2.528641|1.093796|0.087947|1.112426|-0.054896|1.706368|-1.605359|-0.311088|
-0.041319|-1.524284|-0.203805|-0.384127|-0.315914|-0.888974|-2.198093|-3.103944|1.361431|-0.321376|0.481565|-1.049551|1.426897|-0.693496|-0.011406|
-0.064399|-1.036353|-0.005997|-0.092855|-0.080541|-0.721469|-2.325430|-3.108210|1.350390|-0.330950|0.870770|-0.530924|1.642604|-1.346304|-0.241874|
-0.976217|-0.822376|0.626834|-0.887208|-0.257367|-0.660082|-1.889863|-2.283199|0.879308|0.231941|1.164581|-0.474605|1.545560|-1.442338|-0.886818|
-0.854317|-1.664030|-0.237613|-0.171929|-0.175091|-0.692854|-2.066931|-2.817011|1.187591|0.615207|0.446962|-0.648669|1.290567|-1.389077|-0.944818|
-0.799583|-1.433407|0.108778|-0.257698|-0.654092|-0.507525|-1.609499|-2.356137|1.315311|0.018116|0.325650|-1.139167|1.391550|-0.945518|-0.173674|
-0.582680|-0.891562|-0.259822|-0.859075|-0.178569|-0.638998|-1.899991|-2.943748|1.218699|-0.263922|0.699199|-0.248451|1.819208|-0.898095|-0.519451|
-0.194763|-1.406260|-0.379646|-0.706772|-0.821614|-0.896884|-1.785707|-2.456580|1.179529|0.440531|0.702497|-1.155619|1.975413|-1.184748|-0.463404|
-1.034248|-1.748229|0.466127|-0.439125|-0.685836|-0.806801|-1.794483|-2.488185|1.333357|-0.244179|0.877642|-0.308863|1.719175|-1.243224|-0.245148|
-0.796156|-0.958121|-0.070436|-0.371715|-0.697377|-0.492224|-1.843887|-2.231135|0.685863|-0.097632|0.638861|-0.582123|1.562373|-0.667117|-0.380892|
-0.271915|-1.113330|-0.129619|-0.972347|0.074372|-0.159675|-2.117497|-2.467629|0.700560|-0.113265|0.664680|-0.385895|1.972624|-0.658205|-0.179742|
-0.333815|-1.726668|0.167028|-0.367996|-0.519977|-0.952711|-1.949916|-2.223810|1.678955|0.241813|0.814506|-1.116792|1.210497|-0.731198|-0.611651|
-1.010279|-1.819347|0.021190|-0.439687|-0.167566|-0.562215|-2.198881|-2.858764|0.798225|-0.434055|0.508131|-0.487706|1.387046|-1.158680|-0.781944|
-0.094062|-1.275857|0.493119|-0.660291|-0.606167|-0.583289|-1.965752|-3.144224|0.706052|-0.254875|0.918787|-1.042958|1.767131|-0.561641|0.004798|
-0.238496|-0.916512|0.281066|-0.169058|-0.129649|-0.282006|-1.522078|-2.370234|1.747960|-0.349388|0.846742|-0.499258|1.306952|-0.955834|-0.310898|
-0.185504|-1.767363|0.322228|0.117505|-0.156220|-0.844416|-2.120310|-2.971711|1.658233|0.270030|0.789436|-0.799023|2.069042|-0.967135|-0.695275|
-0.671087|-1.525966|-0.420877|-0.701635|-0.250382|-0.897099|-1.786299|-2.919632|1.210168|-0.226723|0.500731|-0.017123|2.074293|-1.469695|-0.391799|
-0.601923|-1.874246|0.205077|-0.457532|-0.435544|-1.346433|-1.901800|-2.626352|1.347846|0.530343|1.097981|-0.921626|1.699629|-0.865054|-0.144506|
-0.478799|-1.102269|-0.419195|-0.033945|-0.705630|-0.534140|-2.425670|-2.651898|1.549678|-0.230464|0.607390|-0.903620|1.984692|-1.299571|-0.564626|
-1.081498|-0.932560|0.086258|-0.706758|-0.584539|-0.641874|-1.636032|-2.975393|1.644395|-0.361202|1.231568|-0.939853|1.498954|-1.616100|-0.143060|
-0.677340|-1.012731|0.275554|-0.636381|-0.178296|-1.308414|-1.575076|-2.888061|1.385265|0.243576|0.868038|-0.543427|1.767583|-1.709806|-0.963094|
-0.682755|-1.801672|0.222145|-0.317760|-0.464457|-1.370291|-2.553560|-3.460311|1.275774|-0.287749|1.097561|-0.602594|2.007158|-1.146749|-0.826558|
-0.168571|-1.058311|0.143461|-0.275323|-0.450163|-1.409061|-2.552329|-2.965914|1.025164|-0.151168|0.643719|-0.829876|2.126254|-0.827434|-0.023907|
-0.713528|-1.825269|-0.330476|-0.038437|-0.796535|-1.361976|-1.676378|-2.966094|1.208937|-0.386247|1.285340|-0.303332|1.994515|-1.597114|-0.660280|
-0.399053|-1.695672|0.207907|-0.560491|0.296660|-0.730427|-2.239588|-2.905032|0.876708|0.065759|0.536877|0.046822|2.167994|-1.193439|-0.734170|
-0.226900|-1.016901|0.359295|0.163099|0.271276|-0.816423|-1.519271|-2.782213|1.624840|0.140369|0.874176|-0.309532|2.072107|-0.831865|-0.633946|
-0.810715|-1.641108|-0.412851|0.124608|-0.323396|-1.211364|-1.533510|-2.665081|0.916821|-0.203451|0.435907|-0.798839|2.143688|-0.977765|-0.375991|
-0.691035|-1.765693|0.590234|0.148203|-0.356644|-1.193262|-2.111555|-2.396435|1.610773|0.279848|0.892478|-0.036279|2.056506|-1.601808|-0.895414|
-0.176533|-1.743633|0.014349|-0.444994|-0.384649|-0.906496|-1.588850|-3.092990|1.026480|0.196281|1.094619|-0.596452|1.237225|-0.907874|-0.306375|
-0.429014|-1.276857|-0.318033|0.065344|-0.358343|-1.492679|-1.417844|-2.423715|1.541251|-0.244811|0.556557|-0.951684|1.336031|-1.348499|-0.589382|
-0.407079|-0.848824|0.061206|-0.523812|-0.453416|-1.303259|-1.454237|-3.026900|1.503140|0.187449|1.275907|-0.708626|1.258079|-1.105697|-0.216444|
-0.164108|-0.978147|-0.431427|-0.179861|-0.725723|-0.556459|-2.205541|-3.162994|1.102110|0.146558|1.170789|-0.561356|2.025355|-1.428760|-0.070979|
-0.271254|-1.607862|0.180196|-0.750020|-0.380781|-0.472772|-2.252350|-3.109360|1.115242|0.525984|1.258089|-0.743865|1.726114|-0.719594|-0.262807|
-0.746375|-1.138836|0.000252|-0.733703|-0.750913|-1.094598|-2.169779|-2.546729|1.373398|0.341402|1.319058|-0.672812|1.167939|-0.873230|0.014983|
-0.780919|-1.723045|0.086637|-0.097735|-0.187481|-1.142420|-1.913805|-2.601835|0.812038|-0.161535|1.278679|-0.801652|1.322393|-1.160676|-0.085257|
-0.766781|-1.656254|0.261944|-0.941265|-0.170481|-1.020528|-1.427246|-2.076461|1.438522|0.149906|0.409734|-1.059046|1.559889|-0.529641|-0.394706|
-0.424743|-1.163944|-0.204317|-0.644299|-0.827948|-0.260971|-1.194810|-2.667285|1.312280|-0.148819|0.860648|-1.401698|1.313449|-1.056093|-0.852290|
0.065872|-1.674613|0.582662|-0.153541|-0.743852|-0.552744|-1.488517|-2.609619|1.154384|0.545137|0.752383|-1.305841|1.404479|-0.252529|-0.433679|
-0.081795|-1.088184|0.313353|-1.059618|-0.534893|-0.290809|-1.604488|-2.861645|0.623808|0.433902|0.476400|-0.552389|1.942375|-0.263544|-0.582577|
-0.278845|-1.774243|-0.332761|-1.139259|0.071938|0.096908|-1.502057|-2.847513|1.255382|-0.419266|0.964022|-0.519260|1.347565|-0.574719|0.052459|
0.106254|-1.879820|-0.041554|-0.513971|-0.756302|0.224997|-1.995478|-2.945156|0.645213|-0.367733|0.901679|-0.506683|1.170163|-0.979595|-0.697613|
-0.189289|-1.212083|-0.244359|-0.385057|0.071598|0.032439|-1.831681|-2.755296|0.731812|0.173141|0.329745|-0.760888|1.044845|-0.416865|0.130124|
-0.802848|-1.169876|0.558746|-0.652710|0.029209|0.329064|-1.377074|-2.039007|1.329065|-0.054046|0.562935|-0.676392|1.198342|-0.700485|-0.552583|
-0.585464|-1.747994|-0.448095|-0.830129|0.035044|-0.139075|-1.433594|-2.420152|1.228705|-0.196052|0.292069|-0.771543|1.085891|-0.887941|-0.466692|
-0.038147|-1.879345|0.433302|-0.206503|-0.494655|-0.354366|-1.893208|-2.870503|1.102780|-0.584467|1.105314|-1.376982|0.988337|-0.886111|-0.595870|
-0.457563|-1.898477|0.682497|-0.387282|-0.517318|-0.549830|-2.250773|-2.442500|0.392011|-0.260062|0.462969|-0.550254|1.108431|-0.297805|0.006978|
-0.824651|-1.332207|0.549204|-0.486206|-0.668674|-0.396718|-2.026560|-2.727710|0.695890|0.376327|0.993407|-1.254078|1.419355|-0.978838|-0.223472|
-0.498656|-0.941087|0.187414|-0.710441|-0.464150|-0.270205|-1.889343|-3.056117|1.064989|-0.407023|0.246646|-1.028443|1.164880|-0.781304|0.006735|
-0.183059|-1.491915|-0.213986|-0.228491|-0.678169|-0.372815|-1.351209|-3.198190|1.491611|0.110370|0.597303|-1.070937|1.352139|-0.433808|-0.254545|
-0.149745|-0.998709|0.026571|-0.905129|-0.672660|-0.591965|-1.526983|-3.068514|1.022970|-0.042429|0.715938|-0.940203|1.383072|-0.988846|-0.206621|
-0.845449|-1.844757|0.063156|-0.544623|-0.637280|-0.514393|-2.140105|-2.349843|1.370924|-0.402192|0.805344|-1.112194|1.677456|-0.550015|-0.289420|
-0.405481|-1.888845|-0.325398|-0.221269|-0.827184|-0.567518|-1.822519|-2.337162|1.265124|0.140904|0.862035|-0.900987|1.879974|-1.457170|-0.010297|
0.050490|-1.319245|0.069263|-0.850265|-0.376450|-1.223137|-1.499285|-2.479729|0.838879|0.350895|1.104464|-0.886696|1.926917|-1.609049|-0.254812|
-0.631749|-1.293867|-0.434904|0.067657|-0.719895|-1.279449|-1.721043|-3.099229|1.233772|-0.270082|0.656130|-1.088096|2.152710|-1.377073|-0.383952|
-0.317793|-1.662240|-0.215273|-0.636677|-0.252525|-0.717572|-1.647959|-2.615505|1.411330|0.420726|0.836957|-0.905426|1.954635|-0.981106|-0.686971|
-0.273598|-1.287600|0.118941|-0.179547|-0.756173|-0.463141|-1.879026|-2.397664|0.947246|0.156345|0.300527|-1.070638|1.988021|-0.780727|-0.542339|
-0.789901|-0.817151|0.020641|0.216201|-0.539789|-1.361740|-2.032849|-3.057242|0.881570|0.378589|0.464722|-0.554829|1.453327|-0.770088|-0.145676|
-0.257020|-1.137686|0.186363|-0.244124|-0.013319|-0.776505|-1.476878|-2.183103|0.723790|-0.392652|1.201395|-0.442816|1.446092|-0.669441|0.026364|
-0.913045|-1.744667|0.452771|0.012384|-0.559572|-1.024221|-1.261366|-2.265180|1.217388|0.320205|0.595979|-0.558652|1.638904|-1.476035|-0.345712|
-0.333054|-1.841170|-0.214071|-0.576234|-0.297401|-0.543695|-1.924721|-2.777536|0.837094|0.156716|0.493170|-0.353182|2.071896|-0.774322|-0.269472|
-0.673999|-0.924443|-0.144121|-0.620770|-0.532449|-0.475324|-1.350540|-2.513953|1.638093|-0.008784|0.254875|-0.845012|2.098007|-1.183854|-0.490118|
0.032271|-1.725576|0.222095|-0.388488|-0.263553|-1.154486|-1.311271|-2.311623|1.128340|0.402519|0.394057|-0.869545|1.669078|-1.123734|-0.983569|
-0.072914|-1.652962|0.343185|-0.879298|-0.516881|-0.664485|-1.644153|-2.203106|1.458479|0.301177|0.508089|-0.499290|1.539879|-1.092171|-0.765676|
-0.429359|-0.963096|-0.339246|-0.946927|-0.014246|-0.679309|-1.318457|-2.502342|0.626166|-0.020626|0.456380|-0.590106|1.875888|-1.232677|-0.550238|
-0.463060|-1.446355|0.129433|-0.229886|-0.118866|-0.575668|-2.127589|-3.086911|1.066583|0.501967|0.400860|-1.130847|1.751942|-1.346543|-0.701420|
-0.130894|-0.972161|0.306763|-0.599156|-0.751612|-0.431987|-2.192130|-2.960668|1.295365|-0.169938|0.510126|-1.004730|1.255981|-0.924715|-0.663177|
-0.692329|-1.840280|0.307022|-0.258182|-0.142957|-0.031139|-1.592148|-3.010798|0.739792|0.057884|1.283023|-1.131817|1.040924|-1.010769|-0.641604|
-0.228659|-1.040782|-0.016421|-0.830003|-0.646011|-0.118444|-1.515574|-2.499427|0.554560|-0.092614|0.410552|-1.172853|1.752631|-1.029847|0.028496|
0.014163|-1.656883|-0.021850|-0.755187|-0.838926|-0.546269|-1.352598|-2.036924|0.543272|-0.037016|0.308761|-0.693420|1.739710|-0.555262|-0.003695|
0.165586|-1.329057|0.101800|-0.697633|-0.555346|0.241933|-1.415381|-2.026298|1.102733|-0.492213|0.812314|-1.302500|1.326986|-0.804397|-0.742470|
-0.527526|-1.996101|-0.217950|-1.166545|-0.895025|-0.087385|-1.775241|-2.004474|0.414074|0.185108|0.889323|-1.414949|1.441910|-0.038941|0.056793|
-0.419219|-2.117992|-0.118551|-1.177877|-0.585043|-0.588063|-1.628329|-2.689921|0.564023|0.070646|0.855206|-0.483178|1.564606|-0.867543|-0.625127|
0.106925|-2.106045|0.373093|-0.772007|-0.868753|-0.541808|-1.300058|-2.662711|1.205364|-0.059139|0.791598|-1.114978|1.905940|-0.170014|-0.543117|
-0.333814|-1.953465|-0.163513|-1.060426|-0.343873|-0.187044|-1.910341|-2.640919|1.136068|-0.230602|0.924281|-0.663453|1.322406|0.034454|-0.385478|
-0.450091|-1.614035|0.227604|-0.591040|-0.807775|-0.291851|-1.457144|-2.715411|0.364602|-0.639533|0.701180|-1.502053|1.826460|-0.309807|-0.701988|
-0.171706|-2.091618|-0.304974|-1.010092|-0.313898|-0.103562|-1.918727|-2.294543|0.895506|-0.388922|0.234907|-1.070025|1.863888|0.048321|0.224365|
0.204502|-2.089949|-0.026473|-0.788032|-0.301552|0.115341|-1.609552|-2.575944|0.139610|-0.414047|0.752690|-0.677769|1.171392|-0.476018|0.288918|
-0.024404|-1.634745|0.163647|-0.265306|-0.717918|0.495596|-1.934504|-2.502171|0.401041|-0.393082|0.291577|-1.454529|1.347178|-0.443602|-0.360380|
-0.227864|-1.182711|0.157702|-0.405495|0.019881|-0.447119|-1.078858|-2.015250|0.609344|-0.299532|0.738883|-1.382195|1.477927|-0.779122|-0.396343|
0.273770|-1.966079|0.542810|-0.871778|-0.122707|-0.346672|-1.249693|-2.568849|1.079011|-0.518682|0.714399|-0.986419|1.213465|-0.136067|-0.535558|
0.048447|-1.675738|0.351771|-0.527697|0.053184|-0.677919|-1.823778|-2.695028|0.630848|-0.098061|0.327506|-1.404277|1.237823|-1.075605|-0.552209|
-0.300855|-1.609302|-0.344324|-1.004702|-0.761817|-0.647780|-1.879197|-2.201943|1.234542|-0.456930|1.187224|-0.514995|1.497063|-0.307119|0.012635|
0.009763|-1.546371|-0.478333|-0.215505|-0.712441|-0.143194|-1.608520|-2.981958|0.619729|-0.177132|0.429144|-0.686486|1.407827|-1.120512|-0.142801|
-0.877305|-1.657819|0.121742|0.008200|-0.771540|-0.335431|-1.255690|-2.437890|1.366479|-0.084632|0.936169|-1.271771|1.431841|-1.135497|-0.605854|
0.002703|-2.009580|-0.551382|-0.507486|-0.451862|-0.824584|-1.366928|-3.094970|0.575099|-0.435612|0.777699|-1.281912|1.329817|-0.869682|-0.568455|
0.001857|-1.678766|-0.457504|-0.394787|-0.355301|-0.649102|-2.109676|-2.521956|1.449029|0.139212|0.417408|-1.207354|1.431877|-0.743497|-0.080751|
-0.606524|-1.654458|-0.246081|-0.658546|-0.332480|-1.173997|-1.913917|-2.830987|0.950506|0.236752|0.395628|-0.566861|1.818527|-1.198922|0.023413|
-0.671159|-1.341909|-0.262834|-0.484438|-0.772839|-0.929307|-1.258586|-2.540476|1.614206|0.148506|0.857878|-0.831269|1.703054|-1.287467|-0.370591|
0.034724|-1.633846|-0.302647|-0.056910|-0.257751|-0.894519|-1.441536|-2.856498|1.383728|-0.426488|0.765126|-1.062274|2.086007|-0.958714|-0.231001|
-0.004321|-1.673740|-0.049879|-0.549815|-0.298951|-0.467298|-1.230540|-2.116934|1.411326|-0.381300|0.801944|-0.382817|1.968422|-1.117446|-0.364055|
-0.742981|-1.783308|-0.098068|-0.201060|-0.338394|-0.473057|-1.139535|-2.420064|1.408060|-0.008324|0.685163|-0.920719|1.311082|-1.110495|-0.883877|
-0.706239|-0.980390|0.612746|-0.461008|-0.285977|-1.104845|-1.780105|-3.019828|0.714353|0.718320|1.067240|-0.764873|2.060412|-0.463910|-0.923717|
0.200278|-1.287856|0.507366|-0.935004|-0.219913|-1.022638|-0.997062|-3.055434|1.277569|0.179377|1.085460|-0.673415|1.415861|-0.747728|-0.501421|
0.125454|-1.931806|-0.213225|-0.590849|-0.579396|-0.299266|-1.012415|-2.833607|0.935524|0.001103|0.770873|-1.365073|1.157005|-1.379570|-0.528743|
-0.044285|-1.845405|-0.064313|-0.095132|-0.003116|-1.070518|-1.676771|-2.699519|1.377087|-0.050537|1.205660|-1.434431|1.576351|-1.154614|-0.054029|
-0.730390|-1.380963|-0.110232|-0.344228|-0.199272|-0.287655|-1.623132|-2.347310|0.582570|-0.002915|0.540295|-1.471335|1.430385|-1.276751|-0.475721|
-0.555645|-1.201640|0.035797|-0.687205|-0.569030|-0.571673|-1.340238|-2.978538|0.928111|-0.469078|1.030171|-0.515506|1.240965|-0.619891|-0.675646|
-0.191805|-1.619106|-0.398424|-0.970784|0.081528|-0.561466|-1.745397|-2.928370|0.674908|-0.067136|0.646684|-0.861414|1.915464|-0.489209|0.021924|
0.386475|-1.321284|0.260635|-0.670078|-0.416973|-0.688367|-1.239144|-2.255747|0.882261|0.326159|0.529325|-1.182647|1.115098|-1.028024|-0.223131|
0.443375|-1.283710|0.315984|-1.075567|0.095019|-0.004041|-1.107216|-2.383812|0.993391|0.471207|1.123103|-1.145395|1.468055|-0.775887|-0.156671|
-0.307861|-1.807871|0.349574|-0.966117|-0.724685|0.342534|-1.057516|-1.887387|1.164217|0.380786|0.973302|-1.050983|1.298546|-0.009535|-0.491570|
-0.377723|-1.856438|0.037590|-1.106730|-0.660396|-0.482533|-1.750609|-2.049921|0.663846|0.007218|0.121874|-0.688313|1.282494|0.094484|-0.367717|
-0.207215|-1.292240|0.599929|-0.267065|-0.190343|-0.155396|-1.192735|-1.784843|0.824229|0.020313|0.431256|-1.510078|1.455695|-0.015687|-0.744595|
0.169941|-1.482079|0.316218|-0.924987|-0.528276|-0.395532|-1.465326|-1.928785|0.217821|0.043397|0.638571|-0.629155|1.172010|-0.560346|-0.632166|
0.340417|-1.389481|0.222693|-0.673545|-0.023584|0.215310|-1.398101|-2.551600|0.302137|0.097071|-0.092523|-1.332075|1.208778|0.263524|-0.116113|
0.233509|-2.100824|0.267035|-0.452803|-0.091168|0.600423|-1.879636|-2.802344|0.695194|-0.440009|0.319443|-0.841715|1.160848|-0.145029|-0.558208|
-0.385969|-2.170626|-0.195858|-1.164500|-0.848692|0.574957|-0.960318|-2.353944|0.110427|-0.328817|0.228549|-1.010282|1.197012|-0.534574|-0.724574|
0.500617|-1.333506|0.440258|-0.391551|-0.041564|-0.156963|-1.049856|-2.679095|0.019420|-0.632851|0.267157|-1.094221|1.587122|0.024339|-0.368273|
0.051264|-1.892083|0.556409|-1.174438|-0.637798|0.094327|-1.639419|-2.709541|-0.072121|-0.058732|0.678708|-1.068869|1.204417|-0.594670|-0.031263|
-0.112085|-1.254163|0.013544|-0.740105|-0.626926|0.497600|-1.807596|-2.245918|0.304713|-0.578505|-0.014447|-1.573753|1.055715|-0.613553|-0.186838|
0.061198|-1.475887|0.122266|-1.250026|-0.681846|-0.198474|-0.902591|-2.330057|0.335623|0.275630|0.257665|-1.638998|1.124782|-0.073550|0.213575|
-0.430433|-1.956095|0.396077|-0.385033|-0.778854|-0.253686|-1.752539|-2.443247|0.404054|-0.509768|0.944837|-1.086969|1.520732|-0.500002|-0.662497|
-0.545816|-1.377013|0.116557|-1.106310|-0.321366|0.105767|-0.886871|-2.078930|0.899813|-0.478133|0.120408|-1.197817|1.852599|-0.243041|-0.743552|
-0.101097|-1.824228|-0.644997|-0.454976|-0.129978|-0.456133|-1.464640|-2.439573|1.042445|0.368236|0.935869|-1.419018|1.754886|-1.104649|-0.624979|
-0.356162|-1.977610|0.251721|-0.569785|-0.678450|-0.010334|-1.373319|-2.587199|0.354436|0.046938|0.512141|-1.070804|1.005558|-1.106852|-0.317932|
-0.046370|-1.992211|0.034796|-0.925717|-0.351831|-0.778930|-1.818453|-2.554545|0.397292|0.043822|0.554182|-1.172485|1.275658|-0.797233|-0.272895|
0.056879|-1.796695|-0.278311|-0.258032|-0.701555|-0.670619|-1.103171|-2.587082|1.041312|-0.480631|0.344514|-1.213545|1.173249|-1.093705|-0.017920|
-0.531511|-1.096242|-0.178845|-0.363895|-0.471443|-0.564314|-1.047195|-2.426468|0.531981|0.368978|1.218651|-0.546821|1.251509|-0.465692|-0.665917|
-0.393946|-1.822966|0.165208|-0.760365|-0.527880|-0.799151|-1.365325|-2.147021|0.915319|-0.396399|0.479924|-1.072912|1.525239|-1.144050|-0.594579|
-0.104724|-1.538181|0.559737|0.142488|-0.425039|-0.619727|-2.088406|-2.992127|1.365772|0.371220|0.230734|-1.147898|1.962591|-0.601682|-0.594373|
0.101033|-1.670903|-0.279856|-0.540590|-0.553714|-0.605479|-1.425625|-2.283617|1.177569|0.463456|0.730492|-0.353977|1.802782|-1.355840|-0.346370|
-0.274812|-0.861836|0.144332|-0.522317|-0.279214|-1.329122|-1.880355|-2.272573|0.790480|0.309313|0.127178|-1.128943|2.323547|-1.079703|0.205953|
-0.153015|-1.820786|0.463154|-0.043066|-0.220507|-1.080446|-1.345086|-2.426072|0.577209|0.303345|0.765458|-1.316729|1.643384|-0.802201|-0.649879|
-0.468742|-1.652621|0.263607|-0.821794|-0.405444|-1.097318|-1.453107|-2.207771|0.706380|0.356844|0.320231|-0.782809|1.487336|-0.832434|-0.867925|
-0.189685|-1.293829|0.377821|-0.122250|-0.664367|-0.669514|-1.364328|-2.111387|1.034583|0.400319|0.722402|-1.476524|1.534728|-1.227080|-0.577396|
0.285978|-1.895636|-0.360538|-0.253963|-0.082780|-0.414761|-1.620937|-2.146232|0.546829|-0.105627|0.765497|-1.556165|1.299748|-1.084926|-0.508735|
0.331326|-1.141564|-0.174758|-0.833684|-0.226188|-0.218034|-0.775082|-2.634032|0.487958|-0.283138|0.603522|-1.421766|1.514725|-0.570742|-0.644585|
0.046270|-1.568015|-0.369986|-0.398895|-0.376205|-0.134517|-0.817724|-2.386756|0.180980|-0.168995|0.283771|-0.941310|1.735114|-0.814251|0.081681|
0.134199|-2.107218|-0.241272|-0.439321|0.076960|0.159383|-0.908223|-2.011045|0.791950|-0.427323|0.578145|-1.006876|1.043569|-0.325830|-0.067156|
-0.271906|-1.958224|-0.205289|-0.262433|-0.724571|-0.756305|-1.422566|-2.546828|0.763350|-0.456142|0.145529|-0.663404|1.499059|-0.326688|-0.647912|
0.165228|-1.226320|-0.242858|-0.645493|-0.265842|0.196937|-1.036556|-2.856317|0.431104|-0.100544|0.579940|-1.162258|1.135748|-0.319688|-0.737761|
0.001754|-2.014999|0.129552|-0.382727|-0.225972|-0.186147|-1.499946|-2.166988|0.665635|0.116729|0.546233|-1.518175|0.954297|-0.787608|-0.229735|
-0.237658|-1.893350|0.255046|-0.450866|-0.556438|0.385144|-0.905349|-2.566168|0.333880|0.303745|0.220745|-1.422208|1.844375|0.137292|-0.786128|
-0.034470|-2.037938|0.451643|-0.444889|-0.315119|0.142316|-1.530653|-2.644129|0.851177|-0.542527|0.179848|-1.556665|0.945676|0.078392|-0.005142|
0.591476|-1.499185|0.300007|-0.755475|-0.668478|0.510475|-0.826902|-1.784174|0.486921|-0.258549|0.336428|-1.610810|1.410541|-0.345123|-0.312905|
-0.323327|-1.394881|-0.187358|-1.082663|-0.313957|0.263022|-1.204542|-2.510424|-0.135342|-0.019666|0.305032|-1.174802|1.596972|-0.290721|-0.077105|
-0.180019|-1.871691|0.316637|-1.016856|-0.357986|0.475250|-1.229824|-1.702108|0.686231|0.091185|0.170472|-1.094378|1.058170|-0.017147|0.153634|
0.578105|-2.030223|-0.259115|-0.877063|-0.193530|0.578445|-1.570681|-2.682565|0.162106|-0.138429|0.550117|-0.841376|1.804424|0.049113|-0.716507|
0.036222|-1.980158|-0.145784|-1.326351|-0.027862|0.445039|-0.961039|-2.489749|0.484860|-0.449863|-0.334115|-1.701832|1.672780|-0.205069|-0.247185|
0.563452|-1.640947|0.102963|-1.118285|-0.353824|-0.167168|-1.369644|-2.319739|0.160300|-0.236463|-0.041907|-1.358641|1.185198|-0.190062|-0.173945|
0.218527|-1.515941|0.383350|-0.949224|-0.070451|0.415112|-0.976999|-2.347498|0.356010|-0.058856|0.282745|-0.987723|1.615363|-0.074086|-0.266200|
-0.172193|-1.063185|-0.242154|-1.187648|-0.283801|-0.040878|-0.967511|-2.354835|0.453002|-0.437926|0.438436|-1.568694|1.511806|0.071633|-0.497207|
0.237529|-1.517352|0.463475|-0.864550|-0.216863|0.603296|-1.030397|-1.709679|-0.131337|-0.331995|0.006121|-1.493324|1.083953|-0.364554|-0.156081|
0.446750|-1.825194|0.228785|-0.880588|-0.169664|-0.120088|-1.434589|-2.575038|0.505859|-0.571656|0.069149|-1.574238|1.342609|-0.264708|-0.211658|
-0.111440|-1.963037|0.148655|-1.011441|-0.338444|0.440372|-0.678578|-1.865514|0.493634|0.205567|0.609165|-0.886533|1.481396|-0.355537|0.106528|
-0.321959|-1.829950|0.009633|-1.022059|-0.098160|-0.406342|-1.717995|-2.395013|0.058223|0.303265|0.544804|-1.239985|1.521180|-0.723302|-0.465336|
0.103411|-2.070805|-0.241055|-1.137098|-0.805959|-0.561636|-1.607997|-1.959487|0.372802|0.018135|0.288971|-0.940554|1.114586|-0.562349|-0.526743|
-0.272779|-1.897556|0.244090|-0.904603|-0.615754|0.011523|-1.640153|-2.798290|0.921336|0.087019|0.532706|-1.487831|1.669110|-0.857439|-0.078426|
0.330763|-1.748680|-0.099205|-0.711086|-0.246296|-0.518866|-1.068609|-2.860281|0.343620|0.268820|0.276046|-0.888073|1.345574|-0.322950|-0.664139|
-0.306497|-1.443742|-0.168689|-0.262667|0.165363|-0.625274|-1.706898|-2.657938|0.290999|-0.482435|0.914127|-1.404752|1.659686|-1.044525|-0.427385|
-0.114270|-1.319462|0.576954|-0.643776|0.121543|-0.215876|-1.081549|-2.403243|0.995475|0.165752|0.689426|-0.956248|1.403662|-0.560864|-0.359305|
0.175407|-1.436238|0.374198|0.202429|-0.018059|-0.182167|-1.390076|-2.200199|1.023753|-0.027702|0.813859|-0.283928|1.345789|-1.084579|-0.037454|
-0.400364|-1.017191|0.153414|-0.534253|-0.239080|-0.391694|-1.713141|-2.502716|0.969919|0.002322|0.244001|-1.225432|1.861472|-0.471813|-0.136944|
-0.513155|-1.490800|-0.066536|0.032527|-0.020591|-1.124493|-1.460108|-2.371558|0.978771|-0.085999|0.792248|-1.185739|2.026673|-1.097756|-0.047952|
-0.310341|-1.606116|-0.007613|-0.785845|-0.427149|-0.987339|-1.582637|-3.056629|0.657326|0.810653|0.729236|-0.590070|1.811644|-0.838093|-0.210530|
0.303917|-1.102129|0.650842|-0.597831|-0.913880|-0.123433|-1.338801|-2.976439|1.000850|0.359320|0.194282|-1.163892|1.713909|-0.991005|-0.609259|
0.387321|-1.931616|0.206896|-0.362227|-0.253793|-0.608936|-1.241992|-2.655135|1.261710|0.010814|0.227940|-1.475867|2.041149|-0.688418|-0.602188|
-0.377933|-0.980313|0.562479|-0.707602|-0.839611|-0.375046|-0.586590|-2.052945|0.563949|-0.171382|0.442975|-1.041732|1.109570|-0.188495|-0.067840|
-0.050767|-1.131440|-0.388390|-0.321765|-0.009710|0.114101|-1.161997|-2.423441|0.413012|-0.251906|0.401135|-0.733107|0.952322|-0.939035|-0.209714|
-0.037038|-1.627110|-0.107260|-0.844539|0.040306|-0.299916|-0.708736|-2.129580|0.396462|0.251179|0.536634|-0.970885|1.712103|-0.136943|0.117197|
-0.306009|-2.045808|-0.696264|-1.011510|-0.422769|0.280319|-1.317172|-2.760566|0.151665|0.390431|0.685771|-1.598477|1.361659|-0.412925|-0.353082|
-0.277749|-1.396940|0.053235|-0.648695|0.137775|-0.553258|-0.649139|-2.596592|0.226346|-0.468199|0.736717|-1.513893|1.932903|-0.334438|0.006155|
0.649451|-1.365409|-0.284528|-0.409398|-0.048425|0.331876|-0.776100|-2.093628|0.039990|-0.131760|0.381435|-1.745171|1.325402|-0.615654|-0.755572|
-0.195422|-1.598360|-0.131356|-0.787095|-0.042286|-0.416221|-1.346596|-2.095614|0.336107|0.166898|-0.131753|-1.394111|1.631428|-0.375835|0.208625|
0.475106|-2.020593|-0.440574|-0.966788|-0.009295|-0.350205|-0.736498|-2.390218|0.622502|0.185861|0.580680|-1.427216|1.069151|0.211506|-0.082491|
0.270134|-1.734067|-0.423245|-1.214451|-0.671291|0.344777|-0.565209|-2.518612|0.482920|-0.569318|-0.408214|-1.721872|0.945799|0.333030|0.020363|
-0.003917|-1.801040|0.258943|-0.639588|0.055185|-0.116473|-1.234441|-1.820681|0.261898|-0.593670|-0.182724|-1.272232|1.139420|0.235085|-0.119428|
0.662115|-2.176625|-0.070072|-1.006601|-0.253561|0.188214|-1.209603|-2.197641|-0.049129|-0.135194|-0.058692|-1.332923|1.155875|0.580432|0.055832|
0.589129|-1.472165|0.145321|-1.173343|0.159954|0.542767|-1.254123|-2.006453|-0.022734|-0.919290|0.222644|-1.587569|1.265364|0.080848|-0.144435|
0.060375|-1.634156|0.143583|-0.958542|0.066927|-0.043078|-1.110292|-1.766402|-0.400051|0.004708|0.102389|-1.451685|1.807715|-0.135940|-0.462969|
-0.000012|-1.693573|-0.201550|-1.078335|-0.189352|0.078088|-1.224602|-2.224313|-0.412953|-0.304466|-0.252021|-1.850496|1.538277|0.591453|-0.054668|
0.165303|-2.062771|-0.126058|-1.331259|-0.206332|-0.010454|-0.349482|-1.406126|0.024404|-0.412562|0.030261|-1.496972|0.836345|0.122419|0.093271|
0.469723|-2.002735|0.638344|-1.367768|-0.288034|0.250707|-0.663444|-2.087006|0.466555|-0.287869|-0.030354|-1.700783|0.773227|-0.175785|0.177219|
0.630031|-2.078485|0.395189|-0.724644|-0.688421|-0.149752|-1.063199|-1.611261|0.146680|-0.578133|-0.090458|-1.507224|0.908730|0.282564|0.127021|
0.246136|-2.129717|-0.018536|-0.967519|-0.737672|-0.002330|-0.762194|-1.782457|-0.020806|-0.596438|0.121293|-1.737532|1.085822|-0.433271|-0.495491|
-0.227396|-1.410487|-0.217101|-1.411224|0.088639|0.502909|-1.393815|-2.492742|-0.208999|0.206302|-0.312815|-1.605544|1.024833|0.154736|-0.613238|
0.545454|-1.533021|-0.312104|-1.145198|-0.258801|0.504786|-0.651640|-2.515081|0.095582|0.207783|-0.197390|-1.411178|1.747734|0.071348|0.008154|
0.127730|-1.216872|-0.333029|-0.611393|-0.130071|0.096688|-1.381032|-2.591958|0.485958|-0.537060|-0.002436|-0.810331|1.063752|-0.176040|-0.120640|
-0.005646|-1.257319|-0.197334|-0.447771|-0.417125|0.289570|-1.611846|-2.025053|-0.041569|-0.574428|0.090465|-1.473079|1.548492|-0.273880|-0.508690|
-0.273188|-2.008084|-0.655325|-0.888171|-0.423299|-0.013473|-1.186855|-2.326243|0.792035|-0.141264|0.811442|-1.515833|1.299471|-0.591157|-0.563639|
-0.044945|-1.127509|0.267018|-0.256037|-0.157239|0.193498|-1.290515|-2.288909|0.050920|-0.551084|0.473194|-0.671304|1.092341|-0.195905|-0.593047|
-0.301824|-1.915451|-0.204901|-0.966295|-0.018335|-0.051604|-1.123471|-2.218689|0.316147|-0.242075|0.198113|-1.315279|1.767456|-0.593350|0.160737|
-0.033270|-1.514519|-0.332698|-0.016704|-0.552518|-0.737076|-1.841751|-2.008692|1.059729|-0.425149|0.859487|-0.988964|1.868423|-0.510489|-0.189612|
-0.455159|-1.703412|-0.213526|-0.020915|0.165406|-0.900417|-1.794004|-2.777285|0.443974|0.244180|0.550474|-1.170356|1.467079|-0.771716|0.213083|
-0.315337|-1.659729|0.386944|-0.422848|-0.614568|-0.803715|-1.284462|-2.600363|0.171341|0.120513|0.035000|-0.391682|1.727813|-0.855900|-0.501572|
0.161559|-0.995464|-0.001315|0.015837|-0.228058|-0.322729|-1.462526|-2.351916|0.459722|0.280969|0.138381|-0.642401|2.198175|-0.684354|-0.245116|
0.363448|-1.823837|0.795600|-0.416067|-0.166590|-0.603188|-0.746060|-2.981911|0.817733|0.581248|0.121045|-1.077030|1.863361|-0.257698|-1.068200|
-0.224005|-1.395834|0.097574|-0.762205|-0.857577|-0.142550|-1.167277|-1.945465|0.947916|-0.129842|0.917621|-1.550695|1.488551|-1.016196|0.032653|
-0.244761|-1.042604|0.086210|-0.450764|-0.315759|-0.089203|-0.990181|-2.191269|0.332927|0.137972|0.363253|-0.729832|1.281751|-0.837618|-0.725691|
-0.242936|-1.131639|-0.072488|-0.949690|-0.664399|-0.360335|-0.431158|-1.848386|1.064238|0.694303|0.891722|-1.495129|1.446974|-0.603428|-0.315150|
-0.051927|-1.833671|-0.316256|-0.507600|0.091261|-0.318028|-1.366891|-1.888426|1.028766|0.490118|0.289119|-1.126796|1.093260|-0.130422|-0.251023|
-0.431324|-1.447669|-0.432439|-0.358390|-0.082685|0.283986|-1.004376|-1.835658|0.087117|-0.037141|-0.005883|-1.297257|0.895158|-0.294881|0.218685|
-0.177073|-1.253865|-0.541738|-0.824683|-0.392612|-0.123136|-1.210455|-2.095595|0.863105|-0.513100|0.546759|-0.925434|1.020556|-0.856430|-0.586531|
-0.099903|-2.203198|0.220401|-0.360652|0.229568|-0.046587|-0.851230|-2.114725|0.181712|0.407679|-0.110523|-1.876192|1.470246|-0.157378|-0.237213|
0.775938|-1.409501|-0.160822|-0.927883|-0.259610|0.513651|-0.391517|-2.501066|0.291032|-0.184679|0.277421|-1.254205|1.713162|-0.576430|-0.390963|
0.175171|-1.666845|0.033668|-0.625679|0.024626|0.395769|-1.046338|-1.738729|-0.395521|0.264190|0.512107|-1.147256|1.509355|-0.105110|-0.594818|
-0.095988|-1.964298|-0.274517|-0.747544|0.042328|-0.127737|-1.200441|-2.384155|-0.187456|0.171289|0.093925|-1.410157|0.848834|0.480924|0.047989|
0.360677|-2.274054|0.464525|-1.021088|-0.187780|-0.172671|-0.716135|-2.223040|-0.448865|-0.750257|-0.061677|-1.045960|0.768619|0.520862|-0.081442|
-0.059437|-1.589831|0.109507|-1.387109|-0.079696|-0.100214|-1.149516|-2.135986|-0.388207|-0.199275|-0.346771|-1.922116|0.799822|0.705423|-0.405172|
0.332391|-1.481903|0.102244|-1.268231|-0.159574|0.128188|-0.946678|-1.867981|0.362117|0.110647|-0.563640|-1.886046|1.610451|0.680629|-0.304322|
0.023708|-1.548694|0.416202|-1.390106|0.407133|0.734127|-0.953961|-1.406849|-0.536206|-0.105330|-0.729247|-1.500913|1.199181|0.687471|-0.100312|
0.492710|-2.166612|0.263970|-0.923863|-0.208270|0.639851|-1.054830|-1.700726|-0.212683|-0.944184|-0.125522|-1.111872|1.475357|0.042616|-0.514385|
0.499692|-2.041587|0.322048|-0.494754|0.412923|0.600267|-1.171018|-1.902194|-0.473330|-0.548557|-0.574012|-1.456808|1.606361|0.586399|0.112745|
0.549525|-1.903763|0.545818|-0.924086|0.072063|0.112701|-1.077905|-1.480619|0.204659|-0.809160|-0.632989|-1.087339|0.860727|0.815427|-0.255082|
0.219971|-1.914305|-0.192695|-1.148985|-0.667586|0.125277|-0.792951|-1.580218|0.315037|-0.701593|-0.572415|-1.894484|0.706107|0.456871|-0.274685|
0.636670|-1.701113|0.167628|-1.113830|0.013437|-0.064433|-1.050422|-1.932190|-0.037812|-0.049236|-0.420182|-1.708263|0.898452|0.055197|0.071728|
0.651022|-1.691710|0.299115|-0.879941|-0.179068|0.638167|-0.836814|-2.271200|0.142551|-0.597710|-0.534262|-0.993906|0.741934|-0.093631|-0.789267|
0.266656|-1.844523|0.244044|-0.733800|-0.180494|0.487349|-0.748402|-1.784165|0.489339|0.209136|-0.256736|-1.029546|1.030771|0.505315|0.155686|
0.244431|-2.178063|-0.216210|-0.871205|0.018951|-0.191190|-1.170843|-1.662053|-0.147438|0.175823|0.317961|-1.187294|1.344146|0.279523|-0.483946|
0.609150|-1.702752|-0.418265|-0.879647|-0.646643|-0.168179|-1.079857|-2.510239|0.172192|-0.115223|0.177906|-1.199906|1.160401|-0.652033|-0.430371|
-0.181941|-1.772463|0.034057|-1.173922|-0.672495|-0.321671|-0.732633|-1.814986|0.076267|0.037108|0.959068|-1.133625|1.027824|-0.268477|-0.282023|
-0.185909|-1.389673|0.207133|-1.156259|0.110639|-0.554536|-1.382035|-2.383828|-0.030252|0.294698|0.384224|-1.235067|1.806740|-0.848003|-0.152092|
0.490190|-1.568658|-0.366150|-0.391676|-0.267390|-0.201789|-0.920528|-2.454374|0.175771|0.170478|0.758560|-1.702037|1.810145|-0.636034|0.275406|
0.427024|-1.788414|0.003536|-0.316315|-0.150142|-0.526770|-1.050866|-2.765818|0.086154|0.375510|0.946322|-1.367475|1.583466|-0.118873|-0.412004|
0.095082|-1.253273|0.601094|-0.111756|-0.246087|-0.117690|-0.973899|-2.356171|0.461876|-0.407441|0.662183|-1.117887|1.798927|-0.627368|-0.063857|
-0.117715|-1.396844|-0.268705|-0.725799|-0.461309|-0.982639|-0.951843|-2.891124|0.382353|-0.206763|0.705123|-1.368644|2.058724|-1.024199|0.027726|
0.043590|-0.816801|-0.064707|0.128831|0.122536|-0.259572|-1.203318|-1.938012|0.144647|-0.293901|0.081703|-0.831234|1.535822|-0.537571|0.099814|
0.504322|-1.744911|0.721162|-0.534899|0.024976|-0.531548|-1.319042|-2.430647|0.376735|0.530453|0.014404|-1.223266|2.205863|-0.807805|-0.267431|
-0.088528|-1.154025|0.868761|-0.243397|-0.574887|-0.600030|-1.387867|-2.555537|0.089592|-0.052703|0.095028|-1.459503|1.785423|-0.046337|-0.197743|
0.418124|-1.798159|0.660768|-0.853766|-0.194213|-0.487442|-0.841521|-2.356959|0.800249|0.428876|0.817247|-1.496167|1.393644|-0.581254|-0.004896|
-0.522375|-1.793847|0.257574|-0.326957|-0.072434|-0.625103|-1.107700|-2.198798|0.146419|-0.026202|0.789753|-1.219652|1.182599|-0.501012|0.049908|
-0.430364|-1.822615|-0.113599|-0.732491|-0.168874|-0.643199|-0.335558|-2.033546|0.141350|0.410465|0.583750|-1.175490|1.250369|-0.497867|-0.072132|
-0.472710|-1.185468|0.466134|-0.901888|-0.775064|-0.148296|-0.980058|-2.442454|0.153352|-0.378067|0.365225|-1.432007|0.789612|-0.174599|-0.481892|
-0.370839|-1.900021|0.478542|-0.614669|-0.071619|-0.323839|-0.737001|-2.357801|-0.030518|-0.379466|0.851985|-1.256735|0.865300|-0.676019|-0.779651|
0.640876|-2.179371|-0.243407|-0.777009|-0.528771|0.109488|-1.127081|-2.004397|0.243706|0.246264|0.225253|-1.202123|1.687763|-0.675489|-0.668860|
0.745343|-1.574854|-0.015518|-0.369402|0.249088|0.140084|-0.738317|-2.176953|0.072294|-0.047549|0.084402|-1.326503|1.683558|-0.515301|-0.405600|
0.751636|-2.119790|-0.298007|-1.303383|0.125527|-0.269450|-0.773673|-2.427100|-0.449101|0.193097|-0.155266|-1.181679|1.413588|-0.116700|-0.383523|
0.776956|-2.079437|-0.045513|-1.264113|0.202618|-0.143084|-1.125914|-1.755265|0.117470|0.152917|0.048533|-1.913007|1.355193|-0.030847|0.315365|
0.160693|-1.908757|-0.421912|-1.147191|-0.277046|-0.030911|-1.115993|-1.850416|-0.585897|-0.124298|0.193361|-1.608357|0.828517|0.452778|0.253455|
0.401636|-2.087898|0.152320|-1.355836|-0.008931|0.559300|-0.350655|-1.642631|-0.627907|-0.609791|-0.301444|-1.125583|1.568074|0.502637|0.150828|
0.296808|-1.518640|-0.131079|-1.037737|0.228788|0.437019|-1.045712|-1.975076|0.205748|0.003581|-0.788787|-1.892943|1.062184|0.913594|0.097524|
0.451357|-2.000314|-0.320827|-0.576147|-0.035296|0.435127|-0.569743|-2.224580|-0.370560|-0.796268|-0.449594|-1.814690|0.786047|0.033440|-0.014142|
0.127613|-2.358117|0.559663|-1.407370|0.100041|0.499191|-1.150244|-1.362894|-0.680346|-0.635324|-0.275090|-2.018850|0.919246|0.520631|-0.790677|
0.794422|-2.228349|0.503379|-0.712618|0.486670|0.629611|-0.565230|-1.558428|0.192058|-0.490731|-0.755408|-1.375325|0.757227|0.218808|-0.044642|
-0.015797|-2.039873|0.516359|-0.877539|0.285595|0.000637|-0.942207|-1.939935|-0.386054|-0.670590|-0.761337|-1.085509|0.672308|0.838224|-0.591437|
0.263288|-2.251836|0.712854|-1.091553|-0.448939|0.128798|-0.963997|-2.110819|0.155171|-0.189192|-0.389503|-2.050220|0.658331|0.136491|-0.522876|
0.089356|-1.327015|0.116254|-1.380568|-0.423568|0.830369|-0.728352|-1.343316|0.234673|-0.440202|-0.010233|-2.125357|0.905278|0.859675|-1.017369|
0.060834|-1.986883|-0.259633|-0.935444|0.127285|0.178625|-0.316196|-2.005261|-0.473834|0.242434|-0.501998|-1.829705|1.572626|0.664259|-0.787832|
0.721714|-1.763242|0.126460|-1.514815|-0.623833|0.212045|-0.553771|-1.857333|0.514673|-0.318469|-0.443164|-1.739702|1.456139|-0.099432|-0.273907|
0.511514|-1.742443|-0.321852|-0.887435|-0.359987|-0.031186|-0.720831|-1.702330|0.545239|-0.285708|-0.205057|-1.922765|1.359843|0.434414|-0.060297|
0.004053|-2.116301|-0.039517|-1.256295|-0.543309|0.353627|-0.363752|-1.460886|-0.201266|0.135875|-0.062694|-1.636456|1.450363|-0.087604|-0.650874|
0.679752|-2.085186|0.044287|-1.329379|-0.676690|0.256204|-0.768058|-2.456884|-0.010241|0.259581|0.061478|-1.132426|1.123765|-0.252813|-0.545112|
0.087984|-1.709691|-0.131287|-0.628150|-0.782570|0.120146|-0.550458|-2.347328|0.023356|-0.522076|0.392097|-1.067262|1.462582|-0.363636|0.091845|
0.312956|-1.291776|-0.021591|-0.598745|-0.657654|-0.041441|-0.442631|-1.853560|0.248827|-0.223318|-0.087419|-1.034773|1.361661|-0.258150|-0.602516|
-0.277461|-1.908406|-0.301159|-1.108943|-0.485016|-0.490899|-1.039953|-2.679914|0.303305|0.247211|0.435459|-1.686724|0.939924|-0.700179|-0.505043|
0.113282|-1.938266|0.371215|-0.562830|0.099428|-0.674376|-0.978918|-1.827775|0.265620|-0.264256|0.558576|-1.005136|1.468004|-0.192386|-0.185888|
0.532656|-1.566604|0.040343|-0.461430|-0.575378|-0.070400|-0.863729|-2.278518|0.095291|0.550790|0.030692|-1.081734|1.380153|-0.472196|-0.422225|
0.130345|-1.384885|0.057056|-0.105948|-0.108266|-0.786516|-0.827261|-2.541462|0.265996|0.518561|0.460751|-1.345899|1.861039|-0.001554|-0.191352|
0.049353|-1.602604|0.452881|-0.455367|-0.660921|-0.393486|-1.137917|-2.388546|0.191228|0.136556|0.568191|-0.426056|1.761279|-0.119016|-0.693614|
-0.041221|-0.955467|0.472490|-0.446199|-0.217235|-0.884279|-0.799599|-2.383815|-0.114345|-0.197221|0.445404|-0.964114|2.287968|-0.978993|-0.518761|
-0.266513|-1.236141|0.219144|-0.515278|-0.634116|0.010735|-0.486030|-1.731967|0.223137|-0.147276|0.851244|-0.950226|1.341315|-0.667864|-0.448862|
-0.304854|-1.168229|0.068529|-0.721292|-0.228458|0.133869|-0.418589|-2.363997|0.376840|0.602520|0.483236|-1.523871|1.217654|-0.468099|-0.375340|
-0.069653|-1.742062|0.037852|-0.232616|-0.039500|0.400306|-0.450321|-1.808171|0.147937|0.211130|0.768879|-1.573449|1.748036|-0.767002|-0.481572|
-0.286855|-1.238383|-0.170889|-0.134915|-0.302426|-0.290810|-0.440365|-2.124891|0.225317|0.322743|0.308247|-1.050016|1.674060|-0.705506|0.097402|
0.180324|-1.793660|0.271633|-0.326364|-0.493906|-0.350094|-0.908443|-1.947988|0.659451|0.275101|0.040129|-1.061504|0.761334|-0.101345|-0.706073|
0.598614|-1.395556|-0.074351|-1.045342|-0.687946|0.387251|-0.655805|-2.179267|-0.120260|-0.078491|0.503454|-1.829310|1.335810|-0.053815|-0.745230|
-0.198271|-1.205169|-0.176248|-1.292842|-0.763762|-0.146985|-1.090929|-2.369894|0.048825|-0.383510|0.066408|-1.989021|1.457258|-0.306716|-0.151237|
0.848463|-1.457610|-0.203152|-1.106696|0.127486|0.314956|-1.084627|-2.164339|0.373586|-0.350924|-0.145822|-1.647602|1.368002|0.332651|-0.439729|
0.369435|-1.568930|0.539789|-1.237900|-0.070168|0.551206|-0.503849|-2.372427|-0.306313|-0.584233|-0.150023|-1.422182|0.869320|-0.219841|-0.114547|
0.305041|-2.041808|0.108816|-1.060013|-0.408924|0.199339|-0.520281|-1.691727|-0.126382|-0.541347|-0.221829|-1.811974|1.327116|0.397388|0.181915|
0.354035|-1.712339|0.632540|-0.986016|0.033581|0.351604|-0.253131|-1.773925|-0.625228|-0.559347|-0.067397|-1.965948|0.883592|0.585009|-0.684338|
-0.102749|-1.726121|0.205191|-1.346537|-0.059575|0.217624|-0.499077|-1.360376|0.215917|-0.644977|-0.863499|-1.601914|0.730922|0.473046|-0.549507|
0.725501|-1.948043|0.261943|-0.583854|-0.401524|0.609939|-1.228373|-2.180810|-0.548751|0.048251|-0.309912|-1.401647|0.877645|0.064815|-0.562161|
0.761111|-1.266532|-0.087763|-1.436081|-0.537961|0.493647|-0.888444|-2.101094|0.175649|0.222766|-0.714607|-1.205232|1.269316|0.563769|-0.406115|
0.416721|-1.807987|-0.209378|-1.243266|-0.040719|0.456259|-0.188945|-1.526637|0.317882|-0.421850|-0.666117|-1.355916|1.176717|0.108616|-0.388897|
-0.086266|-1.860283|-0.195887|-1.565486|-0.197850|0.637845|-0.641317|-1.508544|-0.195372|-0.388552|-0.636343|-1.833689|1.399153|0.414576|-0.679990|
-0.098536|-1.642815|0.244174|-1.662441|-0.106692|0.477219|-1.027476|-1.967194|-0.214929|-0.072602|-0.086660|-2.010004|0.667923|0.427301|-0.555712|
0.135008|-2.151571|-0.171999|-1.686421|-0.308866|0.424776|-0.530758|-2.053682|-0.009630|-0.319246|-0.555696|-1.500794|0.769615|0.139684|-1.204271|
0.296208|-1.719327|0.544548|-1.202211|-0.731503|0.374398|-0.688817|-1.337422|-0.616734|-0.417762|-0.450346|-1.482447|0.965118|0.864369|-0.435366|
0.742142|-2.047152|-0.069617|-1.318099|-0.074079|0.634292|-0.589742|-2.042938|-0.458425|0.348218|-0.440578|-1.312423|1.002149|-0.117844|-1.004879|
0.833038|-2.016084|0.610006|-0.876522|-0.772394|0.187047|-0.928988|-1.692484|0.262761|0.420172|0.194423|-2.111441|1.189839|-0.137311|-1.191083|
0.577931|-1.969427|-0.108115|-1.488794|-0.863153|0.745622|-0.476974|-2.089158|-0.143549|-0.395823|-0.377991|-2.234260|1.731629|0.614481|-1.001111|
-0.166256|-1.858013|0.617178|-1.107034|-0.190931|0.307497|-0.181396|-2.080547|-0.353655|-0.038457|0.206241|-1.749677|1.164033|-0.254224|-0.911711|
-0.015116|-1.647459|0.454204|-1.268513|-0.595133|-0.267478|-0.946913|-1.538035|0.342716|-0.541780|0.484982|-1.644695|1.073637|-0.196601|-0.038736|
0.135393|-1.729685|-0.326860|-0.706723|-0.326449|-0.314350|-0.517127|-2.197345|0.057784|-0.227558|0.346034|-0.962667|1.165724|-0.329541|-0.428837|
0.090193|-1.816613|-0.309673|-0.520618|-0.779764|-0.013266|-0.997763|-1.645232|0.088048|-0.500173|0.600649|-1.112131|0.962233|0.146017|-0.288624|
-0.013814|-1.282875|0.377503|-0.624843|-0.296762|-0.510013|-1.210719|-2.335739|0.316481|0.341035|0.555676|-1.640652|1.319461|0.168109|-0.812664|
0.315750|-1.758256|-0.003484|-0.189278|-0.081417|0.302744|-0.405428|-2.507853|-0.200073|-0.225439|0.428705|-1.218370|1.455107|0.020010|-0.269352|
-0.251951|-1.141336|0.429234|-0.405164|0.045451|-0.177516|-1.076470|-1.493224|-0.063118|0.233543|0.177990|-1.361329|0.985034|-0.352037|-0.134761|
0.503943|-1.493892|0.499170|-0.399615|0.172016|0.008296|-1.394065|-1.500407|0.818227|0.179897|0.317232|-1.157417|1.175016|0.051762|-0.114172|
-0.077421|-1.318684|0.665674|-0.584510|-0.273649|-0.555993|-0.785399|-1.625484|0.081203|0.442515|0.366832|-0.893458|1.614989|-0.634931|-0.455390|
0.524759|-1.324551|0.239731|0.269963|0.009145|0.041703|-1.402919|-1.891327|0.360918|0.258650|0.415217|-1.400937|1.398746|-0.634937|0.062967|
0.188188|-1.430965|0.557395|-0.010168|-0.683931|0.237557|-0.554416|-1.837356|0.013166|0.670633|0.614486|-0.877502|2.087298|-0.117840|-0.877107|
0.448272|-1.170726|0.891445|-0.693867|-0.830783|0.034188|-1.097305|-1.653045|-0.220293|0.099616|0.352979|-1.029329|2.106154|-0.617525|-0.554969|
0.249434|-0.997445|0.658295|-0.675458|0.167334|0.089204|-0.727351|-1.842741|-0.077951|0.182236|-0.096457|-1.220769|1.397570|0.144665|-0.752839|
-0.087320|-0.874456|0.868095|-0.306033|-0.564575|0.525283|-0.297242|-1.359021|-0.417927|0.564554|0.610781|-1.114392|1.309375|-0.321587|-0.040035|
-0.275840|-1.183445|0.069750|-0.813568|-0.526709|-0.251078|-0.891229|-1.390109|0.122853|0.191589|0.392438|-1.845861|1.379768|0.233035|-0.807121|
0.145705|-1.495288|0.224711|-0.680651|-0.470997|0.335121|-0.388999|-2.315942|0.525821|0.428547|-0.363823|-1.034983|1.578946|-0.173816|-0.371653|
0.550130|-1.879180|0.380224|-0.452303|-0.252753|0.416191|-0.758497|-1.608457|0.353843|-0.344150|0.148480|-2.059258|0.838770|-0.239382|-0.871851|
0.533377|-1.874187|-0.080774|-1.122196|-0.640232|0.414318|-0.616788|-1.678161|0.310329|-0.043300|0.302044|-2.283347|0.882308|-0.030470|-0.078516|
0.163259|-1.828445|-0.114339|-1.518880|-0.742784|-0.152760|-1.059912|-1.939943|-0.528176|-0.469775|0.467914|-1.760110|0.818276|0.531008|-0.323590|
-0.046345|-1.704200|0.443657|-0.668538|-0.301295|0.769553|-1.104140|-1.875204|-0.523071|-0.692111|-0.072179|-1.546369|0.845986|0.199777|0.114530|
0.524175|-1.328583|0.244593|-1.375008|0.007376|0.407289|-1.010206|-1.394837|-0.583005|0.257089|-0.061948|-1.761662|0.691446|0.308482|-0.159025|
0.784843|-1.047095|0.220593|-1.256417|-0.444265|-0.256699|-1.177505|-1.077647|0.389777|0.115398|-0.363911|-1.597548|0.897338|-0.082425|-0.723134|
0.357702|-1.611075|-0.311572|-0.693496|-0.122472|-0.292870|-1.087679|-1.879723|-0.445994|-0.558835|-0.873430|-1.188318|1.110740|-0.198225|-0.286361|
0.582749|-1.166120|0.397767|-1.332402|0.096840|0.205522|-0.547704|-1.817229|-0.194572|-0.497203|-0.201451|-1.916187|1.430674|0.441320|-1.114293|
0.381847|-2.013898|-0.212276|-1.775965|-0.377221|0.077884|-0.617240|-1.304617|0.177046|0.101507|-0.638346|-1.573361|1.279202|0.547148|-1.242137|
0.682171|-2.257701|-0.421131|-1.117259|-0.511453|-0.063488|-0.935973|-1.792211|0.191945|0.342698|-0.121368|-2.159761|0.631455|0.188151|-0.603432|
0.387762|-1.432798|-0.048538|-1.630255|-0.801608|0.288429|-0.453190|-1.452454|0.154323|0.224197|-0.801240|-1.858189|1.292110|-0.029527|-1.205096|
0.382406|-2.115194|-0.049106|-1.731143|-0.393366|0.300126|-1.044066|-1.546127|-0.214534|0.108882|-0.517825|-1.584729|0.922378|0.698290|-0.998942|
0.719870|-1.899287|0.344163|-1.841734|-0.399788|0.410284|-0.896256|-1.604255|0.490169|0.401029|-0.382196|-1.642099|0.910642|0.604120|-0.512054|
0.079467|-1.601545|-0.489127|-1.389925|-0.568988|0.663866|-0.989772|-2.042531|-0.165812|-0.049013|-0.610896|-1.597819|0.990711|-0.122350|-0.788307|
0.584313|-0.996002|0.300230|-1.788318|-0.872925|0.131442|-0.347207|-1.512226|-0.143136|0.463359|-0.412181|-2.115298|0.903041|0.566699|-0.840301|
0.749794|-1.822621|-0.168794|-1.347826|-0.208847|0.176279|-0.479673|-2.094999|0.298420|-0.326687|-0.039553|-1.692445|0.752903|0.474784|-1.251927|
0.132874|-1.077542|0.168027|-0.686693|0.027196|0.579507|-0.353753|-1.463687|0.319998|-0.337305|-0.351520|-1.723717|0.699947|0.050713|-0.510915|
0.234210|-1.876652|-0.174936|-1.283340|0.191455|0.030771|-0.633410|-1.515541|-0.434795|-0.016208|-0.175835|-1.426071|0.815139|0.428713|-0.296123|
-0.105078|-1.495904|-0.231648|-0.787769|-0.006001|0.324799|-0.927871|-1.913983|0.275427|0.075145|0.135176|-1.483895|1.436523|-0.466773|-0.441231|
0.146920|-0.947483|-0.156262|-1.361596|-0.047378|-0.365050|-0.567108|-1.516388|0.356152|0.214922|-0.059621|-1.934810|1.536192|0.026979|-0.097991|
-0.165373|-1.011708|-0.414359|-0.948358|-0.736274|0.475990|-0.623734|-1.457361|0.281035|0.238808|0.103791|-1.196096|1.374092|-0.462154|-0.223754|
0.128989|-1.335589|0.467529|-0.417368|0.088751|0.164379|-1.123634|-2.183063|0.011110|-0.328005|0.085692|-1.411841|0.906167|-0.285345|-0.203584|
0.327744|-0.892284|0.464157|-0.166270|-0.725652|0.236129|-0.984568|-2.235074|0.485710|0.352141|0.759719|-0.914096|0.810953|-0.605157|-0.693249|
0.009439|-0.666173|0.632803|-0.613029|-0.308388|-0.789381|-1.222196|-1.246804|0.000194|0.249509|0.410795|-1.062282|1.550960|0.042679|-0.328380|
-0.089938|-1.240940|-0.086772|-0.439171|-0.512703|-0.804784|-0.842358|-1.863801|0.569791|0.529032|0.169196|-1.181668|1.497797|0.135154|-0.917354|
-0.294949|-1.437406|0.352660|-0.180564|-0.118636|-0.696670|-1.053569|-1.562733|-0.259063|0.386095|0.086167|-1.330023|1.514252|-0.270357|-0.476172|
0.520111|-1.088771|1.199611|-0.417905|-0.448541|0.052918|-0.798131|-2.107565|0.180004|0.297873|0.601889|-1.509993|1.494886|-0.287427|-0.890636|
-0.186540|-1.603471|0.891911|-0.628957|-0.680207|0.132844|-0.552319|-1.837486|0.281977|0.770475|0.423189|-1.873138|2.088946|-0.160999|-0.625992|
0.215840|-0.813348|1.000392|-0.612796|-0.054255|-0.252609|-0.180255|-1.532594|-0.162924|0.588295|0.383602|-1.873234|1.044853|-0.307728|-0.118578|
0.677170|-0.995675|0.633505|-0.881825|-0.387596|-0.210020|-0.905202|-1.696589|-0.571255|0.158778|-0.203358|-1.555746|1.183343|-0.129404|-0.239903|
0.455668|-1.100917|0.222653|-0.201550|-0.559537|-0.099327|-0.680330|-1.073888|0.416497|0.574484|-0.049956|-1.883861|1.116538|-0.303059|-0.308190|
-0.173509|-1.101533|0.751582|-0.678998|-0.187900|0.070032|-0.877648|-1.132881|0.464531|0.434156|-0.192478|-1.841352|1.573329|0.192543|-0.521197|
0.611253|-0.991796|0.719887|-0.898145|-0.279147|0.494885|-0.585504|-1.961274|-0.421400|0.543051|0.106668|-1.792771|1.464310|-0.004886|-0.512344|
0.393814|-0.992392|0.310070|-1.530432|-0.221981|0.677129|-0.912657|-1.566434|0.208607|-0.425367|0.251599|-1.803392|1.222588|-0.293080|-0.292262|
0.076067|-1.706367|-0.599678|-1.840631|-0.345326|0.553045|-0.949660|-1.556700|-0.059572|-0.101282|-0.254284|-2.036588|1.235597|-0.059930|-0.579991|
-0.115242|-1.155389|-0.227025|-1.727477|-0.456631|0.468902|-0.667697|-1.458184|0.247564|-0.561349|0.129433|-1.824212|0.556694|0.122636|-0.564797|
0.126645|-1.391162|0.320187|-1.240889|-0.515379|-0.136160|-0.280802|-0.996185|-0.353137|0.210333|-0.243230|-2.042670|1.038636|0.317879|-0.635971|
0.421362|-1.110518|-0.054873|-0.995481|-0.411206|0.126969|-0.994980|-1.608507|0.378785|0.126352|-0.556505|-1.547503|0.834117|0.043949|-0.584041|
0.576708|-1.699382|-0.347168|-1.605952|-0.908109|0.427457|-0.836585|-1.950681|0.005033|-0.030967|-0.118321|-1.587949|1.543450|0.390274|-1.072103|
0.045944|-1.339080|-0.472929|-1.345269|-0.637297|-0.420928|-0.941305|-1.354220|0.776146|0.085440|-0.672351|-2.240627|1.353709|0.338427|-1.062244|
0.479289|-1.597708|0.009721|-1.344699|-0.242429|-0.147155|-0.476340|-1.727260|0.167343|-0.069540|-0.768669|-1.991321|1.472991|-0.025412|-0.949745|
0.578991|-2.085163|-0.327233|-2.280786|-0.531066|0.677036|-1.184525|-2.383089|0.881277|0.343861|-0.792542|-1.856069|0.836105|0.510474|-1.264098|
0.674469|-1.512017|-0.354039|-2.123537|-1.279750|0.008735|-0.287405|-1.676767|0.615066|0.180336|-0.616760|-1.924525|1.573165|-0.447387|-1.511531|
0.674674|-1.589501|-0.550614|-1.452377|-0.780037|0.286263|-0.666431|-2.017918|0.279435|0.542580|-0.259456|-2.429763|1.406220|0.438668|-1.536419|
0.178893|-1.148105|0.100507|-2.089112|-0.824255|0.123506|-0.246798|-1.766365|-0.048974|-0.246834|-0.477722|-1.515151|1.068770|-0.156740|-0.891569|
-0.005386|-0.947407|-0.209809|-2.096358|-1.141411|0.042681|-0.255451|-1.932477|0.454303|0.325058|-0.246919|-2.377049|0.624756|0.041638|-0.741398|
0.786625|-1.374331|0.335875|-1.512414|-0.359303|0.515073|-0.946491|-1.404663|-0.063133|0.684511|-0.307353|-1.863990|0.969242|0.441457|-0.933857|
0.110693|-0.779096|-0.235127|-1.224984|-0.048601|-0.128679|-0.818207|-1.160095|-0.177037|0.003156|0.337768|-1.607481|1.359347|-0.126328|-0.492832|
-0.077923|-1.225226|0.246760|-1.197034|-0.599402|0.283863|-0.017417|-1.234715|-0.431315|-0.046015|0.415110|-1.340980|1.555407|0.443141|-0.882838|
0.501503|-1.458606|0.265464|-0.746856|0.127439|0.035076|-0.431286|-1.319953|-0.119801|-0.380392|0.257281|-1.911691|0.783696|-0.101877|-0.448729|
0.172286|-1.430626|0.073604|-1.401052|0.152738|-0.107562|-0.802350|-1.320795|-0.073287|-0.403047|0.010024|-1.607842|0.980710|0.325179|0.052832|
-0.033779|-0.790425|0.169023|-1.326351|-0.522833|0.206313|-0.430755|-1.241800|-0.041227|0.385974|0.852018|-1.006693|0.925915|0.048411|-0.766728|
0.094717|-0.924937|0.000867|-0.641134|-0.456716|-0.219292|-1.117354|-1.397829|0.404276|0.292102|0.864260|-1.734647|1.357917|0.127994|-0.237344|
0.564629|-1.365171|0.236381|-0.291149|-0.024273|-0.425048|-0.652612|-1.323106|-0.170399|0.004738|0.786417|-1.538503|1.264985|-0.555873|0.130689|
0.597595|-1.050977|0.763356|-0.206350|-0.137001|-0.021041|-0.216059|-1.765965|0.368508|-0.191569|0.345072|-1.096780|1.006064|-0.141641|-0.167870|
0.338196|-0.969360|0.017072|-0.769228|-0.782791|0.293921|-1.159401|-1.250093|0.340198|0.039371|0.770084|-1.499421|1.051635|-0.441302|-0.591423|
0.527675|-1.050946|0.906398|-0.798252|-0.641351|-0.023242|-0.898020|-1.122589|-0.229705|0.564303|-0.012816|-1.205837|1.967143|-0.039099|-0.912339|
0.711159|-0.775935|0.491656|0.157737|0.226438|0.115798|-0.362170|-1.145827|-0.177397|0.745387|0.034170|-1.007809|1.977665|-0.271265|-0.840379|
0.030549|-1.444773|1.102356|-0.334144|-0.199486|-0.450347|-0.824711|-1.907840|-0.221655|0.720471|-0.051051|-1.844598|2.047016|0.266455|-0.126184|
-0.130525|-1.559508|0.692970|0.273477|-0.080400|0.127721|-0.206075|-1.973441|-0.473686|-0.162068|0.222852|-1.906570|1.610804|0.297780|-0.708561|
0.180574|-0.760251|1.266297|-0.354570|0.126067|0.542154|-0.984113|-1.800555|-0.468712|0.567233|0.506833|-1.948981|1.160012|-0.075043|-0.505492|
-0.111704|-1.483530|1.184116|-0.574930|-0.458649|-0.008732|-0.796069|-1.648695|-0.621960|0.496308|0.019068|-1.717111|1.518873|0.107943|-0.709859|
0.699734|-1.471971|1.270829|-1.023200|-0.686089|0.082421|-0.400650|-0.958903|-0.491224|-0.151685|-0.166441|-1.381773|0.932783|0.110602|-0.732893|
0.598116|-0.760850|0.303751|-1.384634|-0.711045|0.314536|-0.747173|-0.951137|0.057220|-0.235357|-0.094870|-1.991325|1.246466|-0.105688|-0.795610|
0.395283|-1.083815|0.816112|-1.438494|-0.355603|0.576727|-0.992040|-0.857704|-0.207927|-0.133590|0.460296|-2.320239|1.138255|-0.211925|-0.867373|
0.046121|-1.048176|0.645621|-1.551017|-0.922286|1.029921|-0.937275|-1.312043|0.190807|-0.320755|-0.101187|-2.070878|1.541443|0.419632|-0.467652|
0.353079|-1.034371|-0.540173|-1.887210|-0.574760|-0.015055|-1.033810|-0.921345|-0.244890|-0.196833|-0.137677|-2.083144|1.392098|-0.480412|-0.312526|
0.033133|-1.118183|-0.208128|-1.573098|-0.733536|0.537967|-1.170146|-1.463478|-0.232652|-0.232438|0.112842|-1.830257|1.018024|-0.515009|-0.684996|
0.842902|-0.958041|-0.409223|-1.146582|-0.295434|0.599386|-0.683167|-1.267971|-0.142723|0.115659|0.197193|-2.314421|0.987626|-0.472389|-0.792016|
0.926468|-1.260286|0.238174|-1.642753|-0.985395|0.419332|-0.955438|-1.717035|0.693870|-0.083357|-0.159838|-1.932431|1.555077|0.245297|-0.800771|
0.815192|-0.612767|0.147433|-1.374629|-1.481349|-0.233152|-0.692832|-1.220830|0.939880|0.717738|0.008862|-1.625465|1.079601|-0.340004|-1.339106|
0.478212|-1.003440|0.017255|-1.783909|-1.413264|0.079530|-0.839984|-1.665865|1.085207|-0.044322|0.174879|-2.094906|0.692589|-0.567627|-1.823830|
0.246147|-0.697594|-0.818368|-2.136393|-1.253399|0.372185|-0.850308|-2.139294|0.363019|0.563812|-0.016595|-1.813924|1.167439|-0.359975|-1.778480|
0.625293|-0.947865|-0.433748|-2.441682|-1.761589|0.712631|-1.370553|-2.167416|0.371759|0.723513|-0.482486|-2.217420|1.004149|-0.269646|-2.193021|
0.202021|-0.998511|0.194118|-2.371029|-1.862925|0.638221|-1.337593|-2.308373|0.945443|0.842386|0.225648|-2.271274|0.642337|0.019635|-2.077451|
0.350222|-1.066106|-0.499905|-2.444956|-1.421997|-0.200511|-0.350020|-1.988091|0.787035|0.425053|-0.558946|-2.439177|1.460407|-0.638921|-1.528461|
0.350488|-0.916605|-0.267752|-2.087703|-1.756741|0.019622|-1.058820|-1.774289|1.005518|0.673839|-0.611703|-2.403812|0.804925|0.235920|-1.246348|
0.063318|-0.922443|-0.582044|-2.225761|-1.415097|0.464249|-0.948476|-1.830192|0.566855|0.308211|-0.510255|-2.400556|0.981964|-0.195244|-1.941581|
-0.065896|-1.478894|-0.132223|-2.261331|-1.430073|0.384240|-0.602130|-0.902714|0.399888|-0.113710|-0.433328|-1.964548|0.537383|-0.614379|-1.490640|
0.657499|-1.098070|0.106834|-1.461103|-0.237954|0.161050|-0.097454|-1.672583|0.041497|-0.231644|-0.181755|-2.044559|0.877044|-0.426423|-1.455121|
0.428826|-1.383313|-0.198047|-1.847526|-0.189948|0.615951|-0.572558|-0.975892|0.173887|0.568249|-0.225723|-1.694045|0.712261|0.245119|-0.615278|
0.588261|-0.948114|-0.445435|-1.706851|-0.103949|0.161434|-0.619964|-1.559513|0.486844|0.104630|0.510061|-2.035474|0.710321|0.156190|-0.991613|
0.054048|-0.596171|0.372690|-1.718228|-0.873975|-0.061111|-1.092930|-1.235158|-0.173263|-0.089588|0.259485|-1.195037|1.238183|0.127763|0.074154|
-0.315228|-0.988375|0.107871|-1.434325|-0.375897|0.063560|-0.245441|-1.277298|-0.321838|0.196849|0.730772|-1.731392|0.658899|0.328304|-0.488757|
0.613381|-1.334581|-0.002003|-0.715733|-0.622456|-0.395028|-0.819109|-1.507273|0.453808|0.270532|0.399322|-1.833904|1.157942|0.305155|-0.422381|
-0.341757|-0.734305|0.440132|-0.595565|-0.682834|0.245548|-0.702956|-0.977968|-0.293957|0.013958|0.148732|-1.810956|0.773077|-0.572867|-0.610666|
-0.108560|-1.334801|0.694797|-0.281052|0.012121|-0.493102|-0.465677|-1.801337|-0.428766|-0.181281|-0.043965|-1.103990|0.983041|0.113296|-0.378626|
-0.345278|-0.940093|0.334680|-0.664479|0.064976|-0.417297|-0.897537|-1.056131|0.382274|0.423314|0.569484|-1.367774|1.632233|-0.167092|-0.491627|
0.598817|-1.182396|0.241997|-0.612087|-0.171567|-0.129285|-0.106305|-1.305078|-0.578878|0.148998|-0.003360|-1.083528|1.930757|-0.089093|-0.329398|
-0.024561|-0.832556|0.637105|-0.297681|-0.162172|0.121124|0.041410|-1.078992|0.066419|0.330152|0.208233|-1.245972|1.609260|-0.244096|0.052984|
0.818005|-0.813391|0.720343|-0.217443|-0.009142|-0.265544|-0.785227|-1.005567|-0.691982|0.596446|-0.381780|-1.975645|1.440623|0.060007|-0.463207|
0.044237|-1.381827|0.541428|0.105133|0.266131|-0.296071|-0.480705|-1.351909|0.153973|-0.064738|0.432001|-1.089118|1.529630|-0.068842|-0.731707|
-0.099314|-0.795748|0.769308|-0.469949|-0.202585|0.561357|-1.059171|-1.400154|-0.229108|0.427978|0.545723|-1.615341|1.656770|0.536477|-0.003881|
0.794929|-1.383876|1.330852|-0.865644|-0.013573|0.616894|-0.627904|-1.475210|-0.233374|0.453102|-0.156194|-2.115356|1.166849|0.489862|-0.438832|
0.481031|-1.035568|0.991176|-0.712302|-0.346750|0.563550|-0.975913|-0.985139|-0.487845|0.110027|-0.177374|-1.855262|1.141639|0.710158|-0.460265|
0.733188|-1.079581|0.691916|-1.376455|-0.511620|0.215950|-1.037125|-0.562788|-0.127143|-0.313260|-0.155487|-2.280568|0.670623|0.404380|-0.111417|
-0.128195|-0.630556|0.362381|-1.714052|-0.081783|0.109625|-1.183528|-1.462973|-0.336279|-0.380330|0.032372|-2.367981|1.317650|0.002060|-0.431888|
0.392750|-0.116977|0.115501|-1.511348|-0.637775|0.751349|-0.637144|-0.452206|0.119905|0.294185|-0.280618|-2.204065|0.378057|-0.413166|-0.381677|
-0.026303|-0.464883|-0.025537|-1.599760|-0.719838|0.007500|-1.214448|-1.306951|0.032358|-0.112810|0.352500|-1.611999|1.120281|0.076605|-0.967081|
0.345088|-1.065839|-0.372184|-2.099365|-1.126080|0.348333|-0.935349|-0.877733|0.760884|-0.455733|0.381066|-2.330368|0.929405|-0.392324|-1.159758|
0.010610|-0.597943|-0.820930|-2.093816|-1.236789|-0.224588|-1.204705|-0.900449|0.799925|0.595264|0.412103|-1.465820|1.367463|-0.788755|-1.366449|
-0.116518|-0.855236|-0.748205|-2.032263|-1.071035|0.403570|-0.817269|-1.695514|0.743956|0.151862|-0.491226|-1.802719|0.564845|-0.493384|-0.800815|
0.599828|-0.652104|-0.466474|-2.311974|-1.124771|0.217480|-1.223190|-2.009292|0.368543|0.898211|0.148048|-1.629159|0.689078|-0.748050|-1.964662|
0.120794|-0.585917|-0.685103|-2.324872|-1.969566|-0.384685|-1.305822|-1.511685|1.420864|0.838070|0.484953|-1.946970|0.861695|-0.469416|-1.946002|
-0.038794|-1.317152|-0.922767|-2.500448|-1.823808|-0.158461|-0.619981|-2.069997|1.457690|0.582996|0.303136|-1.956368|0.573748|-0.354988|-2.239380|
0.630109|-0.721716|-1.031048|-1.948966|-2.125084|-0.195904|-1.279468|-2.353215|1.368954|0.359743|0.283214|-2.609663|0.789281|-0.765629|-2.368715|
0.108668|-0.787793|-0.504201|-1.970641|-2.347928|0.189836|-1.119591|-2.129101|1.016124|1.281031|-0.384393|-2.405610|0.709654|-0.752620|-1.807855|
0.793889|-0.911746|-0.033164|-2.452960|-1.513709|0.674161|-1.357260|-2.085623|1.149278|1.107305|-0.541780|-2.609322|0.715003|-0.720556|-1.715630|
0.856199|-1.116464|-0.867689|-2.248089|-1.757370|-0.052520|-1.404030|-2.078444|1.335921|0.752504|-0.380839|-2.153951|1.276182|-0.391993|-1.426864|
-0.063682|-1.116537|-0.691318|-2.672961|-1.270784|0.316166|-1.100101|-2.014067|0.639386|0.855886|-0.107301|-2.077504|0.870303|-0.720163|-1.889344|
0.566750|-0.543487|-0.903893|-2.268908|-0.794686|0.617332|-0.947988|-1.300010|0.573282|0.615812|-0.199999|-2.057617|0.704365|-0.417305|-0.972993|
0.169286|-0.438627|-0.845334|-1.898815|-0.557276|-0.237661|-0.593888|-0.815790|0.496961|0.437675|-0.089393|-1.968796|0.703687|0.174454|-1.496541|
-0.069837|-0.513109|-0.741089|-2.058743|-1.181944|0.713586|-0.876159|-1.426902|0.758660|0.145578|0.086145|-2.105120|0.747528|-0.070436|-0.442669|
0.224724|-1.171339|-0.081187|-1.220318|-0.960985|-0.032898|-0.894388|-0.730323|0.719477|-0.246804|0.187589|-2.104409|1.021410|-0.684548|-0.215613|
-0.341793|-1.124582|0.375131|-1.480458|-0.793968|0.273780|-1.067657|-0.756371|0.562027|0.506828|0.884837|-1.239867|0.617933|-0.146770|-0.623706|
-0.358064|-0.587740|-0.325194|-1.234544|-0.726783|0.115248|-0.697941|-1.412506|0.643013|-0.224112|0.570481|-1.829201|1.370307|-0.400178|-0.488220|
0.320848|-0.991006|-0.138211|-0.657971|-0.891637|0.216822|-0.937119|-1.074761|0.247490|0.280622|0.739223|-1.196962|1.128398|-0.529720|-0.841559|
0.383239|-1.000683|-0.021726|-1.047033|0.104208|-0.192299|-0.638387|-1.235031|0.246551|0.496335|0.520072|-1.645698|0.852715|-0.346060|-0.432689|
0.036392|-0.698872|0.228666|-0.503461|-0.594888|0.341477|-0.044106|-1.033601|-0.278390|-0.229413|0.792949|-1.222657|0.973500|-0.343191|-0.389873|
-0.304835|-0.622323|0.945703|-0.814232|-0.086335|-0.261356|-0.420815|-1.499819|0.015731|-0.238819|0.556351|-1.421427|1.117481|0.423618|-0.659383|
-0.039838|-0.926253|1.022650|-0.078023|0.298072|0.536783|-0.742978|-1.511733|-0.575787|0.128749|-0.247752|-1.680568|1.956222|0.728238|-0.421417|
-0.037948|-1.004386|0.730610|-0.120748|-0.462992|0.501716|-0.326106|-1.006588|-0.347171|0.763596|0.304412|-1.771176|1.894468|0.787093|-0.169176|
0.460061|-0.834029|1.277782|0.155178|-0.127465|0.059749|-0.407312|-1.553526|-0.832936|0.003896|0.288775|-1.284102|2.271967|0.251645|-0.895171|
0.431509|-0.983271|0.804888|-0.609133|-0.125519|0.647197|-0.827324|-1.442484|-0.818409|0.055079|-0.533004|-1.621001|1.349997|0.680466|-0.223839|
0.472803|-0.533896|1.209792|0.218891|0.475179|0.544292|-0.884847|-1.581122|-0.403423|0.332553|-0.355868|-1.641307|1.902419|0.865871|0.033784|
-0.058336|-0.403051|0.490930|-0.437047|0.087596|0.444982|-0.093843|-1.022010|-1.018939|-0.198384|0.118814|-1.623900|1.417088|0.661573|0.235509|
0.727054|-0.961039|0.977836|-0.552834|-0.220104|-0.064037|-0.126589|-0.624952|-0.207860|-0.041482|-0.312181|-1.872582|0.975476|-0.169410|-0.810712|
0.185226|-0.894240|0.638183|-1.361419|-0.121111|0.586809|-0.651089|-0.496080|0.091500|0.124984|0.513073|-1.335729|0.800054|0.232008|-0.147919|
-0.326509|-0.556315|0.318838|-1.423584|-0.099189|0.859175|-0.904817|-1.215347|-0.246133|0.042446|-0.141221|-1.646284|0.539427|-0.156868|-0.397099|
0.594104|-0.400912|0.081543|-1.872480|-1.127327|0.298674|-1.185817|-0.399349|0.663973|-0.112985|0.191661|-2.252603|0.610787|-0.119520|-0.813028|
-0.130864|-0.903082|0.331866|-1.300172|-1.097503|0.557464|-1.034235|-0.515845|0.690883|0.471366|0.133692|-2.149631|0.463428|-0.195186|-1.221713|
0.256597|-0.304537|0.007341|-1.674693|-1.186548|-0.090238|-1.292390|-0.672277|0.848824|0.246989|0.027882|-2.266657|0.264776|-0.261563|-0.482932|
0.310648|-0.278311|-0.080886|-2.214956|-1.617654|-0.179346|-1.454372|-1.735229|0.849310|0.405464|0.686785|-2.081967|1.008595|-0.532666|-1.679177|
0.077142|-0.916197|-1.028452|-2.534188|-1.540203|0.159179|-1.076812|-1.652562|0.630817|0.504225|-0.009865|-2.315144|1.421703|-0.601455|-1.737997|
0.015248|-0.457170|-1.030805|-2.518931|-1.593257|-0.215474|-0.901188|-1.466374|0.968272|0.693153|0.683354|-2.311594|1.445017|-1.096682|-1.272575|
-0.195384|-1.086638|-0.947429|-2.542133|-1.453261|0.159741|-1.284887|-1.730877|1.213833|0.287251|-0.202173|-1.873005|1.192237|-0.996769|-2.338337|
0.536758|-0.442674|-0.245265|-2.136965|-2.339459|-0.146199|-1.069258|-1.440808|1.264292|0.413066|0.643561|-1.941421|0.549005|-1.177986|-2.402046|
0.655660|-1.025214|-0.637847|-2.872975|-2.332383|-0.155308|-1.454439|-2.228344|1.208840|0.590768|0.178027|-2.079351|1.286990|-1.144248|-1.875851|
0.732650|-1.374596|-1.363211|-2.668917|-2.414477|-0.022306|-1.082011|-2.318212|1.476858|0.981619|-0.110434|-1.676462|0.906244|-0.333682|-2.480080|
-0.071642|-1.233208|-0.453122|-2.466246|-2.226076|-0.197970|-0.536218|-1.681642|1.291218|0.958522|-0.096378|-2.389112|0.978654|-1.052621|-2.063418|
0.332090|-0.450608|-1.303668|-2.184044|-2.350444|0.471525|-0.485139|-2.137274|0.869391|0.770777|0.179527|-2.131596|0.953594|-0.609546|-1.733559|
-0.024231|-0.517232|-0.429447|-2.730007|-1.753667|-0.152092|-1.354711|-1.671040|1.506271|0.279413|-0.155505|-1.759518|0.497511|-1.011070|-1.797570|
0.038326|-0.692990|-0.648586|-1.945267|-1.822939|-0.008998|-0.914592|-1.052597|1.032716|0.817736|-0.015745|-1.955890|1.266117|-1.023279|-1.825164|
-0.338884|-0.619456|-0.699127|-1.832469|-0.824217|0.477784|-0.399039|-0.673447|0.529881|0.509700|0.410703|-2.280174|0.400406|-0.541676|-0.738483|
0.136250|-0.299870|-0.758386|-1.608508|-0.736362|0.909532|-0.137482|-0.867715|0.682573|0.271360|0.622920|-1.737683|0.434995|-0.730246|-0.609028|
-0.170956|-0.345608|-0.210883|-1.662700|-0.810581|0.900864|-0.584172|-0.578085|0.065236|0.280862|0.347103|-2.196067|1.114447|-0.207143|-0.912840|
0.402795|-0.612352|-0.246787|-1.612460|-0.967318|-0.012788|-0.066280|-1.326728|0.571170|0.431374|-0.028001|-1.441189|0.346967|-0.441406|-0.612267|
0.348911|-0.856498|0.600808|-1.161162|-0.466298|-0.042660|-0.069254|-0.679825|0.533494|0.379528|-0.046025|-1.077004|0.833536|0.308761|-0.659471|
-0.467560|-1.095373|0.304326|-1.453504|-0.355548|0.729449|-0.186176|-0.442123|-0.155035|-0.295838|0.435149|-1.142393|0.672201|-0.205171|0.038298|
0.428189|-1.016711|0.424320|-1.034337|-0.421918|0.303114|-0.844149|-0.572762|-0.312626|0.575211|0.607085|-1.995861|1.224047|0.456768|-0.053845|
0.195321|-0.283403|0.967802|-0.899089|-0.400091|0.391199|-0.464348|-0.768886|-0.631427|-0.292117|0.544398|-1.277476|0.786573|0.596171|-0.101575|
-0.324987|-1.055538|0.460708|0.224053|-0.482033|-0.085607|-0.023288|-1.339942|-0.484883|-0.197478|0.009621|-1.230087|1.634276|0.851500|-0.527362|
-0.022594|-0.553884|0.984646|0.081779|-0.348515|-0.128490|-0.589203|-1.149240|-0.053014|0.186883|0.145571|-1.786943|1.121421|0.611805|-0.449471|
0.055926|-0.345001|0.784344|0.053762|-0.257336|-0.074939|-0.512587|-0.834220|-0.467836|0.536364|-0.424934|-1.673423|2.036723|0.811604|-0.673162|
0.056705|-0.353047|1.231624|-0.161121|0.009572|-0.246226|-0.782687|-1.007826|-0.529405|0.681226|-0.047695|-1.411847|2.121812|1.029432|-0.336043|
0.071127|-0.459237|1.131912|0.399560|-0.113273|-0.104102|-0.397051|-0.922879|-1.121948|-0.039852|0.065286|-1.297745|1.903666|0.498891|-0.755328|
0.102203|-0.772767|0.936199|0.007801|0.207392|-0.043724|-0.873317|-0.574668|-0.721747|0.091888|-0.026544|-1.539912|1.694668|0.596329|0.168596|
0.202238|-0.268806|1.033258|-0.649049|0.077276|0.239094|-0.315385|-1.085877|-0.335720|0.261205|-0.145793|-1.848061|1.145149|0.503547|-0.355688|
0.291337|-0.542121|0.740587|-0.514697|-0.322914|0.880394|-0.752410|-0.888239|-0.838983|-0.325717|-0.258037|-1.214608|0.999417|0.900172|-0.221207|
-0.228385|-0.999065|1.010966|-0.707558|-0.238914|0.879508|-1.059573|-0.983703|-0.337402|-0.321575|0.161334|-2.090174|0.314975|-0.052241|-0.466755|
-0.171557|-0.801365|-0.032134|-1.099668|-0.123498|0.527022|-0.748790|-0.758865|-0.149047|-0.099203|-0.061793|-1.960323|0.683761|0.192936|-0.821506|
0.351961|-0.803296|0.154275|-1.560946|-0.627680|0.131531|-1.152446|-0.961406|0.776941|0.346708|0.615507|-1.659060|0.547154|0.266397|-1.079171|
0.133384|-0.502670|-0.405661|-1.756353|-1.333917|0.682543|-1.208612|-1.073166|0.508140|-0.102065|-0.009983|-1.809244|0.231976|-0.282409|-0.449889|
0.200179|-0.890719|-0.684412|-2.100074|-1.708325|0.770797|-0.704058|-1.567773|1.070702|-0.062700|0.411336|-2.155759|0.289591|-0.711904|-0.950612|
0.274642|-0.731839|-0.507043|-2.112424|-1.600940|0.468085|-0.781005|-1.662383|0.747026|0.742763|0.617100|-1.927052|0.962474|-0.784693|-1.678883|
0.147665|-1.079455|-0.794565|-2.234824|-1.617145|-0.122312|-0.887138|-1.177445|0.721837|0.653600|0.005910|-2.297973|0.415247|-0.990962|-1.754526|
0.740964|-0.613394|-0.378310|-2.433133|-1.742806|-0.162667|-1.013633|-1.520408|1.273934|0.536173|-0.210093|-1.818144|0.810126|-1.011574|-1.604088|
0.007977|-0.743932|-0.937856|-2.280463|-2.628776|0.606351|-1.193389|-1.866611|1.314463|0.602722|0.628454|-1.559915|1.057848|-0.476825|-2.456782|
0.045398|-1.129136|-1.357281|-2.246660|-2.510311|0.270299|-1.468524|-1.619257|1.421010|1.242537|0.388033|-2.259028|0.550868|-1.307092|-1.754520|
0.038616|-0.957778|-1.624827|-2.795291|-2.751658|0.118954|-0.510691|-1.966920|2.169818|0.611268|0.742265|-2.691705|0.838893|-1.281541|-1.730776|
0.496774|-1.216767|-1.272520|-2.612913|-2.629957|0.112106|-0.962943|-2.402788|1.347092|1.258847|0.200276|-2.009009|0.607535|-0.553081|-2.521953|
0.122404|-0.800919|-0.733423|-2.320771|-1.881990|0.416610|-0.684780|-1.740290|1.874131|1.084690|0.714955|-2.263798|0.646793|-0.536734|-2.301391|
0.703699|-0.708683|-1.133740|-2.491096|-2.657863|0.276633|-1.207529|-2.132130|1.407729|1.261804|-0.145336|-2.497492|0.939941|-1.021835|-2.129360|
0.639483|-0.503657|-0.835564|-2.835896|-1.656101|-0.026430|-1.266249|-1.498112|1.268961|0.864979|0.258437|-1.629884|0.692615|-0.358983|-2.090352|
0.026091|-0.320347|-0.680586|-2.130280|-2.140741|0.628283|-0.268275|-1.858993|0.877410|0.662021|0.065023|-2.267243|0.832328|-1.022421|-1.370557|
-0.094241|-1.215691|-0.246168|-2.200665|-1.672391|0.248570|-0.284606|-1.466316|1.203145|0.210475|-0.209488|-1.753244|1.114739|-0.880094|-0.931081|
-0.148069|-0.428074|-0.412561|-2.157002|-1.247151|0.070031|-0.515762|-0.876430|0.456916|0.082176|-0.143656|-1.957360|0.639832|-0.675506|-0.783054|
-0.302783|-1.168951|-0.670406|-1.093583|-0.548599|0.722155|-0.971654|-0.492442|0.384236|0.115630|0.094013|-1.307874|0.351127|-0.646866|-0.618699|
-0.483504|-0.969849|-0.421199|-1.736449|-0.849903|0.632257|-0.610302|-0.571324|0.647033|0.456183|0.568844|-1.953300|0.169552|0.271707|-1.015741|
-0.194068|-0.944494|-0.019959|-1.487966|-1.026170|0.863701|-0.313946|-0.502694|0.679424|0.097271|-0.136135|-1.279175|0.952855|0.158579|-0.577854|
0.000843|-1.040175|0.045275|-0.932933|-0.116964|0.861189|-0.538966|-1.102227|0.184189|0.517755|0.045380|-1.384052|0.489317|-0.189700|-0.814507|
-0.038196|-0.195126|0.232882|-0.856758|-0.613405|0.662704|-0.091016|-0.377537|-0.236144|-0.200711|-0.207277|-1.788361|0.418170|0.629953|-0.878777|
0.171414|-0.493791|0.999788|-0.056411|0.011706|-0.172870|-0.208745|-1.401488|-0.183425|0.005665|-0.382840|-1.523685|1.544749|0.316204|-0.202158|
-0.268898|-1.027502|1.023664|-0.377702|-0.339914|-0.073877|-0.361061|-1.171311|-0.289321|0.081324|0.138262|-1.276209|1.535478|0.421823|-0.780341|
0.324494|-0.816850|0.800094|-0.028822|0.105450|0.378433|-0.101629|-1.360505|-0.916411|-0.111888|0.472995|-1.658916|1.109372|0.357145|-0.183730|
0.078387|-0.124798|1.477194|0.125028|-0.500002|0.648440|-0.600299|-1.011467|-0.759382|0.547466|-0.334303|-1.660859|1.708936|1.045672|-0.871963|
0.904069|-0.328032|1.991550|0.255735|-0.109878|0.597353|-0.594977|-0.746094|-1.037745|0.070365|-0.214672|-2.053359|2.306329|1.142060|-1.087830|
0.554912|-0.373309|1.288747|0.269978|-0.405939|0.220607|-0.224974|-1.305176|-0.812556|-0.053301|-0.732740|-1.896909|1.547427|1.040764|-0.761363|
0.127836|-1.198098|1.509489|0.117983|-0.319140|0.045635|-0.576471|-0.451988|-0.399965|-0.187753|0.451041|-1.473203|1.138288|0.549810|-0.575480|
-0.147730|-1.038587|1.034097|-0.201091|0.046948|0.334136|-0.197350|-1.147217|-0.972342|-0.075388|-0.342265|-2.019729|0.999486|0.944807|-0.720128|
0.017025|-1.108078|0.539847|-0.147396|0.279764|-0.003746|-0.224758|-1.099485|-0.088869|-0.129480|0.538504|-1.980650|0.257946|0.484766|-0.735093|
0.144789|-0.223364|1.063784|-1.004389|-0.106488|0.578966|-0.471424|-0.894975|-0.498672|-0.359491|0.099807|-1.774757|1.081889|0.108921|-0.841103|
-0.606394|-0.987752|0.600350|-1.165334|-0.007218|0.304840|-0.927063|-0.324858|0.364772|-0.414584|0.027761|-2.024841|0.715059|0.443378|-0.684105|
-0.534742|-0.822372|0.006545|-0.925983|-0.561503|0.082789|-0.571554|-1.091963|0.212170|-0.419740|0.669874|-1.912527|0.434926|-0.229824|-0.262808|
0.094212|-0.233582|-0.236966|-1.869491|-0.962700|0.244032|-0.347091|-0.823619|0.601580|0.419232|0.797097|-1.887020|0.610344|-0.429933|-1.393176|
0.029600|-0.319796|-0.335960|-2.133943|-1.456366|0.925408|-0.463276|-1.475656|0.719798|0.737073|-0.022423|-2.062805|0.271902|-0.340356|-0.943773|
0.278545|-1.072053|-0.829527|-1.952741|-1.977334|-0.032019|-0.947344|-1.617904|0.664194|0.051812|0.404418|-2.373777|0.374962|-0.804293|-1.457582|
0.014848|-1.063464|-0.309766|-2.658189|-1.815211|-0.023518|-0.735025|-2.203071|0.958705|0.498905|0.238864|-1.771391|0.642945|-0.586102|-1.251796|
-0.012885|-1.264099|-1.331553|-2.352368|-1.968282|0.468486|-0.648711|-2.355061|2.001912|0.698622|0.436663|-2.217953|0.344002|-0.912537|-1.532243|
0.126752|-0.532471|-0.614608|-3.066404|-2.210508|0.521436|-0.720619|-2.430412|2.174033|1.141480|0.732160|-1.982358|0.891093|-1.158908|-2.285357|
0.625484|-0.973693|-1.102846|-3.377825|-2.691518|0.671494|-1.461477|-2.707284|2.209952|1.427909|0.051433|-2.025974|0.281878|-1.080417|-2.331814|
0.465886|-0.748376|-1.611137|-3.174604|-2.772586|0.507519|-1.239136|-2.336228|2.306211|1.025542|0.848243|-2.158697|0.253879|-0.805747|-2.424160|
0.756233|-0.871434|-1.488717|-3.372233|-2.389728|0.582720|-1.215797|-2.608453|1.538569|1.249848|0.144248|-2.650377|0.511967|-0.601058|-2.586375|
0.683140|-0.854944|-0.721156|-3.266640|-2.665604|0.841561|-1.250953|-1.626439|1.842033|1.516508|-0.003973|-2.796402|0.676245|-1.256595|-2.728443|
-0.031360|-1.062972|-1.592152|-2.743410|-2.710140|0.235305|-0.865147|-2.534551|1.747327|0.750438|0.583070|-2.701831|0.703071|-1.275680|-2.403079|
0.226057|-0.628719|-0.826605|-2.412003|-2.005852|0.500059|-0.765400|-2.270983|1.581524|0.977270|0.779017|-2.010265|0.935075|-1.074239|-2.170335|
0.088501|-0.591237|-0.424726|-2.415193|-2.082064|0.263710|-0.589439|-1.528287|1.574498|0.518774|-0.147933|-2.110015|0.497520|-0.979852|-2.017401|
0.173328|-1.221999|-0.781491|-2.374351|-1.204530|0.389428|-0.192000|-1.575633|0.798382|0.147053|-0.221887|-2.055666|0.324614|-0.773406|-1.588283|
0.486886|-0.782104|-0.798786|-1.532149|-1.639229|0.016930|-0.483118|-0.943114|1.149422|0.112239|0.763013|-1.767641|0.426040|-0.750948|-0.550798|
0.109606|-1.258622|-0.046408|-1.791348|-0.897411|0.570752|-0.600788|-0.683050|0.521683|0.095767|0.383721|-1.315054|0.432375|-0.010243|-0.478755|
0.243853|-0.744542|-0.340393|-1.358874|-0.180409|0.164381|-0.679095|-0.581911|-0.004480|-0.347111|0.258231|-1.362912|0.062239|0.407425|-0.840543|
-0.016046|-0.531032|0.124221|-1.123250|-0.877286|0.183478|-0.935731|-0.887519|0.607391|-0.008108|0.212847|-1.735198|0.200028|0.355426|-0.200254|
-0.106313|-0.358604|0.954941|-0.609796|-0.512884|0.249022|0.161747|-1.095493|-0.125744|-0.059450|-0.198926|-1.591134|0.542708|0.451659|-0.936834|
0.344450|-1.094752|1.135054|-0.459651|-0.440785|0.286704|-0.492630|-1.380089|-0.358210|-0.084779|-0.369427|-1.849827|0.819054|0.298329|-0.460266|
0.368879|-0.620100|1.282371|0.043632|0.169568|-0.074774|-0.154657|-1.358585|-0.712791|0.698608|-0.230867|-1.011609|0.928318|0.864755|-0.224661|
0.113018|-1.183191|1.302673|0.701030|0.219160|0.327612|0.319556|-0.671362|-0.498711|0.333702|-0.150389|-1.076752|1.584900|0.937433|-0.333786|
-0.204879|-0.912324|1.724098|0.098172|-0.153944|-0.217709|-0.102318|-0.885637|-0.494272|0.068839|-0.531229|-1.688990|1.996182|0.431853|-0.150494|
-0.117807|-0.735433|1.479816|-0.208974|-0.082637|0.334473|-0.661014|-0.572449|-0.793861|0.879289|0.112085|-1.648323|1.498986|0.377507|-0.148784|
0.671169|-0.566345|1.345211|-0.079954|0.328814|0.155928|-0.673682|-1.328710|-1.077280|0.109544|-0.151410|-1.912782|1.882457|0.574887|-0.965871|
-0.212721|-1.023957|1.236522|0.690616|0.499628|0.427628|-0.533827|-0.942542|-0.599936|0.042634|-0.635835|-1.182107|2.042076|0.691521|-0.490759|
0.040256|-0.947281|0.999393|0.276776|0.225817|0.113017|-0.064409|-0.689957|-0.999384|-0.168581|-0.170644|-1.632883|1.642039|1.352577|-0.037210|
-0.169200|-0.659164|1.549459|0.186667|0.659742|0.313761|-0.019053|-0.960663|-0.563879|0.086012|-0.545131|-1.114842|0.871406|0.527708|-0.633045|
-0.178330|-1.035397|1.022638|-0.703955|0.373544|0.131333|-0.451928|-0.263016|-0.538178|-0.360360|-0.479274|-1.160642|0.903888|1.320116|-0.585102|
-0.291734|-1.006670|0.459201|-0.557383|0.052978|0.469432|-0.532237|-0.616796|-0.868614|-0.106113|-0.141654|-1.582631|0.340466|0.650838|-0.567420|
0.344393|-0.508011|0.572061|-1.277389|-0.433997|0.045177|-1.082662|-1.195277|0.068113|-0.647130|0.129755|-1.653529|0.045763|0.054912|0.011432|
-0.493726|-1.148900|-0.027611|-1.678841|-0.728404|0.616592|-0.666085|-1.012294|-0.003404|0.355736|0.642944|-1.742214|0.252212|0.355738|-1.010945|
0.208908|-0.481561|0.560851|-1.603184|-0.880127|0.118957|-0.535782|-1.354426|0.812841|0.544361|0.289009|-1.564525|0.133048|0.527248|-1.181683|
-0.266886|-0.506203|-0.173243|-1.328012|-1.598101|0.490243|-1.043110|-1.537469|0.568560|0.488804|0.200510|-2.159448|0.823246|-0.403995|-1.283658|
-0.028462|-1.016483|-0.517088|-2.314985|-1.373238|1.051994|-1.195133|-1.291368|0.534701|-0.012045|0.410515|-2.307871|0.462984|-0.709412|-1.569678|
-0.163498|-0.897245|-1.131168|-2.743264|-2.062344|0.388032|-1.477520|-1.942727|1.082768|0.951477|0.115493|-1.894163|0.980075|-0.456809|-1.822725|
0.419533|-1.397846|-0.486841|-2.700159|-2.731727|0.925406|-1.279024|-2.557917|1.742153|0.484799|0.437085|-2.111668|0.538191|-0.481333|-2.296604|
0.217525|-1.725124|-1.040585|-3.327389|-2.882968|0.779803|-1.104002|-1.962340|1.690349|1.299695|0.870124|-2.621081|0.824974|-1.045948|-2.559957|
0.319595|-1.593759|-0.898433|-2.961440|-2.970687|0.928797|-1.273553|-2.636209|1.511782|0.765091|0.713385|-2.451784|0.755845|-0.596350|-2.164103|
-0.081313|-1.128619|-1.560324|-3.071124|-2.669854|0.146968|-0.840247|-2.972302|2.247579|0.744486|0.420355|-2.675427|0.390168|-1.219078|-2.456156|
0.465098|-1.713331|-1.045577|-2.733007|-2.362122|0.607315|-0.626808|-2.797349|1.655930|1.053569|0.782784|-2.525862|0.269474|-1.071810|-2.545556|
0.715900|-1.725103|-0.801959|-3.478348|-2.636229|0.580844|-0.259042|-2.484362|2.058915|1.013657|0.494287|-1.973971|0.147309|-0.848452|-2.215388|
-0.047339|-1.226762|-1.057789|-2.598077|-2.885116|0.496921|-0.584529|-1.537022|1.934071|0.876264|0.088391|-2.809868|0.775505|-1.033539|-1.760870|
-0.122846|-0.936135|-0.569377|-3.160671|-1.672044|0.721274|-0.949763|-1.598511|1.501078|1.303315|0.392730|-2.808976|0.515754|-0.833391|-2.150775|
0.410066|-0.782329|-0.888034|-2.105978|-2.005066|1.210704|-0.303325|-1.138734|1.570549|0.244627|0.220829|-2.320577|0.005211|-0.610217|-1.672989|
0.605317|-0.668305|-0.652321|-1.905589|-1.620514|0.951836|-0.424175|-1.169384|0.690681|0.828663|0.159230|-1.841133|0.013234|-0.399929|-1.187020|
-0.000493|-1.516267|0.028092|-1.203789|-1.250689|0.951525|-0.150264|-1.395341|0.275454|-0.085791|0.204783|-2.013995|0.494458|-0.032722|-1.113914|
-0.159216|-1.103407|-0.058801|-1.128715|-0.696193|0.653328|-1.066629|-1.259818|0.007630|0.214725|0.183477|-1.368673|-0.142009|0.628302|-1.027294|
-0.167278|-0.562057|0.469598|-1.508062|-0.391556|0.404122|-0.200700|-0.957683|0.710997|0.300912|-0.111213|-2.217567|0.021930|0.066300|-0.634436|
-0.056721|-1.121676|0.212369|-1.279653|-0.552707|1.070726|0.033661|-0.694155|0.184475|-0.384142|0.144980|-1.220098|0.246809|0.827634|-0.356006|
0.011722|-1.002977|1.171266|-0.896320|-0.310364|0.141660|-0.276988|-0.563652|-0.301703|-0.088055|0.219740|-2.085279|0.947613|0.431710|-0.900330|
-0.253647|-1.171356|1.334870|0.008185|0.017174|0.075855|-0.493417|-1.336028|-0.891413|0.736354|-0.351444|-1.507058|1.191369|0.614764|-0.933181|
0.265171|-0.925854|1.215852|0.242257|-0.365475|0.646478|-0.400443|-0.577115|-0.971672|0.176397|-0.519326|-1.471959|0.906859|1.231053|-0.199397|
-0.097785|-0.582276|1.626862|0.614297|-0.184242|-0.169679|-0.306581|-0.820484|-1.028074|0.016216|0.068022|-1.923747|1.093375|1.154744|-0.345779|
0.190177|-0.782130|1.806683|0.411400|-0.426379|0.012908|0.019752|-0.533931|-0.596451|0.021600|-0.417964|-1.888299|2.000888|1.021431|-0.947768|
0.706173|-0.601312|1.574726|0.274558|0.060468|-0.122799|0.291109|-0.590401|-0.785273|0.202771|-0.721405|-1.921205|1.646520|0.576206|-0.973114|
0.427054|-0.622127|1.338863|0.849666|-0.022750|0.633192|-0.789972|-1.446794|-0.936731|0.665371|-0.804375|-1.873637|1.989037|0.422057|-0.354634|
0.312177|-0.854772|1.779678|0.372880|0.047672|0.142541|-0.516665|-0.671223|-1.282676|0.425783|-0.045183|-1.199906|1.212012|1.645124|-0.103549|
0.450337|-0.705374|2.134420|-0.017931|-0.092865|0.575904|0.308791|-0.732164|-0.485744|0.134397|-0.255040|-1.647208|1.648701|1.576601|-0.898517|
0.173037|-1.141823|1.264245|0.346898|0.401573|0.993681|0.197135|-0.421253|-1.083228|-0.147211|-0.297233|-1.977033|1.097488|1.482769|-0.425416|
0.378210|-1.141925|0.952934|0.187031|0.181620|0.437212|-0.348049|-0.386765|-1.311896|0.028592|0.196241|-1.872670|1.210392|1.289322|-0.776201|
0.677847|-0.475253|0.629442|-0.689436|0.603180|0.494377|0.048889|-1.030321|-1.041470|-0.454244|-0.272596|-1.543531|0.873313|1.511173|-0.613404|
0.585952|-1.207482|0.733138|-0.710285|0.167045|1.023126|-0.132634|-0.960570|-0.105666|0.030481|0.112847|-2.060098|0.743695|1.170240|-0.089958|
0.443825|-0.615156|0.200655|-1.441894|-0.505749|0.597887|-0.858738|-1.321734|-0.427110|0.086021|0.237796|-2.008815|0.855655|0.250572|-0.891390|
0.293311|-0.527560|-0.212384|-0.904752|-0.257735|0.540613|-0.993566|-1.693379|-0.117438|0.417140|-0.288224|-2.296195|0.333958|0.611667|-1.197718|
-0.077932|-1.357443|-0.387409|-1.965014|-1.149629|0.721011|-1.056906|-1.197806|0.009119|0.075622|0.422445|-1.996416|0.697791|-0.083083|-1.330779|
0.525368|-0.921151|0.339077|-2.437461|-1.087439|0.431835|-1.119038|-1.744914|0.542861|-0.030459|-0.342743|-1.900243|0.438689|-0.305282|-1.315637|
0.617396|-1.305478|-0.681224|-2.583345|-1.647092|0.778510|-0.985584|-1.841660|1.484760|0.083393|0.622470|-2.340657|0.016340|0.375656|-1.967427|
0.407308|-1.965696|-0.658461|-2.447478|-2.688467|1.140614|-1.159853|-2.497550|1.341239|0.813117|0.238006|-2.380796|0.593303|0.083155|-1.723626|
0.022917|-1.772164|-0.682429|-3.044742|-2.502182|0.482998|-1.411586|-3.006486|1.301263|0.443432|0.140374|-2.041600|0.131479|0.156463|-2.506917|
0.163385|-2.142797|-0.443851|-3.050583|-2.098063|0.677587|-0.703339|-2.123658|1.858738|1.088348|0.795173|-2.881422|0.091668|-0.569690|-2.767124|
0.219483|-1.350936|-0.980692|-2.947974|-2.999998|0.640910|-1.310087|-2.896980|1.796472|0.682300|0.067033|-1.892984|0.408442|-0.427650|-2.538164|
-0.027514|-1.628556|-1.233778|-2.965860|-2.986591|0.771709|-0.774699|-2.833140|1.632712|0.894828|-0.117692|-1.876448|0.242941|-0.260520|-2.010180|
0.193295|-1.202605|-0.493225|-2.408049|-2.920103|1.361100|-0.799531|-2.281428|1.382584|1.416721|0.110489|-2.153436|0.112235|0.315809|-2.225573|
0.142221|-1.681680|-0.345045|-3.168614|-2.523883|0.516657|-0.617611|-1.651141|0.993685|1.271897|-0.177250|-2.736701|0.428832|0.031715|-2.009021|
0.027051|-1.763606|-0.939735|-2.577945|-1.816658|1.227644|-0.370298|-1.534064|0.724940|1.033829|0.030954|-2.641342|0.035269|-0.383319|-1.994597|
0.504671|-1.230744|-0.285339|-1.786687|-1.724283|0.692952|-1.050740|-1.386230|0.653563|0.120997|0.048045|-2.147651|0.079368|0.565195|-1.835270|
-0.034586|-1.780096|0.190567|-1.870611|-1.231178|0.526971|-0.855877|-1.692424|0.156485|0.435964|0.049673|-2.562612|0.138956|0.299024|-1.570577|
-0.103229|-1.529613|-0.397968|-1.256853|-1.269580|0.907494|-0.575057|-0.840092|0.270562|-0.312178|0.260968|-2.069340|0.191365|0.649620|-1.315194|
-0.447862|-1.499068|0.406558|-1.685172|-0.384160|0.494186|-0.140455|-0.650172|0.478085|-0.427569|0.336862|-1.593586|0.022149|1.132571|-0.502588|
-0.485038|-1.552509|0.816226|-1.111869|0.012654|1.046381|-0.248949|-1.092325|-0.133891|0.239022|-0.144432|-2.114347|0.885097|0.513266|-0.169513|
0.497671|-0.850812|0.499034|-1.179621|-0.229234|1.021909|-0.506038|-1.039854|-0.305863|0.307054|-0.211996|-2.154739|0.404967|0.868844|-0.780564|
-0.197667|-0.907894|1.510665|-0.714701|0.391960|1.009543|0.317618|-1.318918|-0.355874|0.406826|-0.723640|-2.319470|1.024651|1.574247|-0.637974|
0.150334|-0.924155|1.267361|-0.498163|0.416381|0.621047|0.601057|-0.759544|-1.315749|-0.046353|-0.227545|-1.413686|1.398870|1.353609|-0.149087|
0.247101|-1.505687|1.619870|-0.145132|0.193814|0.667440|-0.229058|-1.161266|-1.305586|-0.227415|-0.154680|-1.942069|1.660386|1.617112|-0.724753|
0.496459|-0.696082|1.822301|0.082922|0.092466|0.006422|-0.189063|-1.004726|-0.915172|-0.104243|-0.787744|-1.121573|1.481730|0.858011|-0.176084|
0.186351|-0.874233|2.049696|0.334499|0.120787|0.159068|0.114382|-0.775190|-0.339201|0.730839|-0.138466|-1.431237|1.332542|1.147262|-0.881370|
0.300782|-0.257601|2.058017|0.750577|0.222804|-0.169133|0.364139|-0.692116|-0.820947|1.043632|-0.792596|-1.339512|1.372076|1.110629|-1.022488|
0.540130|-0.428693|2.324890|0.337086|0.252863|0.297090|-0.554258|-0.675745|-0.729445|0.268641|-0.741179|-1.582989|1.897824|1.343254|-0.588324|
0.308684|-1.032580|1.554267|0.878579|0.443445|0.638450|-0.385874|-1.047116|-1.296572|0.015609|-0.810904|-1.467912|1.386634|0.819709|-0.677240|
0.816806|-0.172177|2.287256|0.693170|-0.118905|0.597565|0.081710|-0.394221|-0.913647|0.285816|-0.483304|-1.171642|1.798154|1.256647|0.013919|
0.050107|-0.705735|1.739964|-0.061865|0.608019|1.203925|0.277992|-0.565592|-0.716918|-0.078578|-0.621518|-1.458862|1.288699|1.089464|-0.020526|
0.112053|-0.781672|2.128584|-0.225085|0.430445|1.089774|0.103003|-0.609054|-1.105934|0.455413|-0.564450|-2.000272|0.909093|1.990660|-0.045945|
0.905591|-1.048968|0.992752|-0.525925|0.330706|0.686826|-0.057577|-0.427142|-1.464712|0.411680|-0.086070|-2.149741|1.469042|1.755869|-0.818919|
0.423693|-1.183011|1.194893|-0.144036|0.195415|0.987018|0.121438|-1.200209|-0.668584|-0.470601|-0.023386|-2.174486|0.899276|1.625276|-0.763652|
0.423797|-1.120814|0.999379|-0.666137|-0.313218|1.050158|-0.977656|-1.488447|-0.348223|0.203728|0.100602|-1.737638|1.072900|1.237533|-0.554404|
0.465959|-1.468645|0.974203|-1.291879|-0.938742|0.743346|-1.023549|-1.558607|0.005386|-0.246489|-0.366518|-1.891098|0.426361|1.464290|-0.580603|
0.887928|-1.730373|-0.039235|-1.121275|-0.662243|1.516504|-0.784016|-1.729968|0.037298|0.678644|0.396749|-2.062199|0.390334|0.494755|-0.820493|
0.434163|-1.504852|0.026979|-2.079974|-1.659575|0.757841|-0.576345|-2.046446|0.493796|0.043218|0.143054|-2.467419|0.842919|0.307226|-0.892478|
-0.004136|-1.197715|0.566585|-2.319579|-1.635526|0.865138|-1.256563|-2.244996|0.247889|0.211680|-0.338435|-2.355860|0.839120|0.710672|-1.239285|
0.654652|-1.809448|0.205949|-2.299346|-1.736969|1.179034|-0.549945|-2.512218|0.322974|0.890232|0.408910|-2.820124|0.655853|0.268101|-1.545072|
0.364626|-1.873341|-0.289599|-2.522030|-2.274541|1.100275|-1.013918|-2.853374|0.942881|0.604667|-0.351768|-2.473304|0.858013|0.511144|-1.677758|
0.191772|-2.065966|-0.636079|-2.519745|-1.825995|1.419389|-0.683388|-2.457893|1.245606|0.790061|-0.471257|-3.149436|1.059698|0.184688|-2.154877|
0.369514|-1.755154|-0.046718|-2.274211|-2.117235|1.006185|-0.861895|-2.504601|0.947901|1.275820|-0.064687|-2.506525|0.689239|0.409306|-1.993884|
0.165075|-2.068812|-0.209601|-2.566702|-2.139544|0.936297|-1.503485|-2.728704|1.607493|1.366850|-0.134549|-2.857239|0.500285|0.066347|-2.299150|
0.328371|-1.188278|-0.123021|-2.306657|-2.580178|1.773838|-1.060342|-2.577555|1.038030|1.034543|-0.055980|-2.628201|0.615189|0.752962|-2.660712|
0.350211|-1.445581|0.131647|-2.608538|-2.270848|1.155590|-0.659143|-1.931526|1.164121|0.515032|0.024548|-2.908696|0.939200|1.019516|-2.020374|
0.622136|-1.068262|0.144257|-1.792154|-1.686041|1.303448|-0.502490|-2.235403|0.163810|0.308771|-0.453849|-2.529119|0.214723|0.163119|-1.293785|
0.288020|-1.822788|0.157095|-2.185759|-1.254095|0.952248|-0.936953|-2.009553|-0.117520|0.947561|-0.065344|-2.734018|0.770490|1.086849|-0.931717|
0.306449|-1.648806|-0.196256|-1.869590|-1.295125|1.080059|-0.296084|-1.144844|0.531960|0.371984|-0.359542|-1.702307|0.578016|0.763828|-1.415240|
0.636278|-1.134763|0.061017|-1.670666|-0.655893|1.118183|-0.883216|-1.394428|0.040422|-0.017202|-0.643315|-2.266075|0.037834|1.232689|-0.675663|
-0.020926|-1.456633|1.254325|-0.848613|-0.115195|0.680508|-0.800120|-0.583647|-0.635235|0.028127|-0.276978|-2.360609|1.050937|1.427458|-1.119750|
-0.105778|-1.599506|0.974633|-0.486695|-0.448924|1.116698|0.193596|-0.591046|-0.396636|0.032055|-0.136218|-1.704894|1.079180|1.606386|-0.117919|
0.803814|-1.659592|0.922056|-0.680649|0.294952|1.001996|0.277125|-0.854896|-0.519219|-0.423870|-0.034622|-2.342675|0.800474|1.738105|-0.316925|
0.620319|-1.705491|1.673969|0.143954|-0.086325|0.974715|-0.247286|-1.035443|-1.292225|-0.321770|-0.420656|-2.013696|1.354028|1.873137|-0.423400|
1.030707|-0.998554|1.475508|-0.410842|-0.248767|0.693451|-0.115992|-0.924708|-1.329732|-0.156474|-0.555630|-2.333379|0.991634|1.142192|-0.053965|
0.170156|-0.735202|2.065298|-0.151076|0.820588|0.112972|0.517628|-1.029784|-1.278884|-0.258065|-1.035529|-2.113550|1.079730|1.499703|-0.476733|
0.100079|-0.479678|1.283720|0.636096|-0.041864|-0.088848|0.435315|-0.694623|-1.017239|0.717326|-0.980242|-1.590563|1.216072|1.073984|-0.218571|
0.365666|-0.118841|1.373194|0.822228|-0.190236|-0.234501|-0.165282|-0.316150|-1.200798|-0.017079|-0.226309|-1.789664|1.362777|0.672105|-0.663076|
0.260868|0.122384|1.246360|0.000102|0.227656|0.580070|0.018766|-0.888099|-0.369248|0.887395|-0.762681|-1.030675|1.925050|0.885985|-0.552509|
-0.113172|-0.650313|2.281218|0.374521|0.385049|0.048687|-0.288475|-0.615413|-0.650117|1.085312|-0.747754|-0.817829|1.286819|1.089311|-0.929266|
0.398686|-0.435652|2.108350|0.553083|0.501198|0.158888|0.520095|-0.192508|-0.927237|0.247018|-0.251209|-1.523127|1.501568|1.334662|-0.479923|
0.475899|-0.264442|1.597459|0.507469|0.167785|0.590434|0.604705|-0.772375|-1.230395|0.270492|-0.304451|-1.295752|2.082185|1.090568|-0.462188|
0.157945|-1.068696|1.768062|0.056366|0.527257|0.369910|0.149859|-0.802782|-1.422229|0.812118|-0.826790|-1.516361|1.818623|1.765661|-0.276817|
0.930501|-0.859361|1.642235|0.356153|0.458976|1.062654|-0.035083|-0.573649|-1.390864|0.065697|-1.103909|-2.090832|1.477724|2.154305|-0.179235|
0.735332|-1.340624|1.498686|-0.008343|0.053837|1.518795|0.559485|-0.933545|-1.584567|0.340007|-1.003071|-2.609635|1.655475|1.709320|-0.432402|
0.541250|-1.372897|1.148998|-0.109540|0.170867|0.805938|-0.072543|-0.672674|-1.676689|-0.055153|-1.143323|-2.192225|1.569618|1.522566|-0.851172|
0.609610|-1.549986|1.176356|-0.706647|0.169458|1.424805|-0.196388|-0.981344|-0.652628|0.337165|-0.455682|-2.310628|0.692913|1.093821|-0.414409|
0.670225|-1.844289|0.892411|-0.055949|-0.509313|1.486516|-0.815221|-1.064639|-0.713602|0.345708|-0.675683|-1.619778|1.137166|1.857649|-0.509333|
0.226690|-1.657475|0.484788|-0.583261|-0.352034|0.855132|-0.962465|-1.207365|-0.804706|-0.097308|0.015293|-2.442559|0.315924|1.082363|-0.472687|
0.758847|-1.281597|0.289374|-1.135339|-1.285000|1.218858|-0.839560|-1.872830|0.124437|-0.037707|-0.527106|-2.401370|0.605343|0.890970|-1.177768|
0.163416|-1.776248|0.050239|-1.408499|-1.689326|1.729612|-0.970670|-2.291269|-0.376994|0.847531|0.151960|-2.630551|0.941612|0.802491|-1.255289|
0.910004|-2.167259|0.337133|-1.421898|-2.132681|1.489200|-1.141202|-2.657567|-0.298903|0.674891|-0.433145|-2.402423|0.463457|1.019917|-1.335931|
0.541304|-1.479795|0.420239|-2.159027|-1.652514|1.394809|-0.737284|-2.602759|-0.122209|0.231775|-0.245830|-2.338731|0.673794|0.581888|-2.080886|
0.775478|-2.175111|0.695583|-1.851388|-1.921046|1.275463|-1.247231|-2.097300|0.243164|0.509178|0.032242|-2.589583|1.053012|1.369459|-1.579687|
0.395359|-2.306612|0.390080|-1.587443|-2.224383|0.971613|-1.226095|-2.247835|0.245779|0.783952|-0.570736|-2.245416|0.382855|1.303153|-2.467683|
0.885287|-2.310089|0.030681|-1.837670|-2.388432|1.013822|-1.188279|-2.293751|0.924044|0.805752|-0.478786|-3.004805|1.168988|1.340470|-2.039613|
0.353748|-1.876190|0.086183|-2.269319|-2.327862|1.065171|-1.017460|-2.832449|0.361600|0.348489|-0.115944|-2.552261|0.605035|0.934766|-2.338240|
1.046149|-2.088654|0.353851|-1.468246|-1.544930|1.609331|-1.169580|-2.488646|-0.024431|0.569438|-0.274517|-2.389734|1.132395|1.207936|-2.175400|
0.459215|-1.252629|0.413794|-1.966484|-1.053878|1.536089|-0.709606|-2.329001|-0.166897|0.731327|-0.283247|-2.417691|1.178278|0.992517|-1.658000|
0.989259|-1.380449|0.488008|-2.030642|-1.302662|1.005728|-0.236481|-2.089642|-0.608139|0.418722|-0.474006|-2.161567|0.987318|1.302434|-1.275857|
0.018982|-1.322322|0.037469|-1.699104|-0.595187|1.667520|-0.995430|-1.283691|-0.725098|-0.159456|0.206167|-2.446786|0.630990|1.319645|-0.736148|
0.232170|-1.012906|1.075912|-0.708996|-0.459619|1.176997|-0.642540|-1.179776|-0.182759|0.069512|-0.237382|-1.633101|0.872791|1.227259|-0.534083|
0.864440|-1.748068|1.447121|-0.209474|-0.607339|0.937168|0.191785|-1.066228|-1.287989|0.372334|-0.370942|-2.007852|1.349164|1.361535|-0.142782|
0.531260|-0.944988|1.305701|-0.459426|-0.507123|1.551916|0.350575|-0.706543|-1.540724|0.477301|-0.520832|-2.381633|1.193156|1.433582|-0.418637|
0.774430|-1.581158|1.631884|0.164107|0.064194|0.608907|0.639645|-0.987104|-1.101177|-0.195062|-1.025413|-1.663757|1.400286|1.264354|-0.213730|
0.852714|-1.149298|1.502712|-0.174273|0.046123|1.488641|0.036013|-1.073542|-2.062346|-0.049691|-0.437156|-1.610578|0.954737|1.852277|-0.178515|
0.883381|-1.589151|1.549664|0.153724|0.167258|0.522010|0.815634|-0.567835|-1.591349|0.292831|-0.630788|-1.803043|1.799084|1.412160|0.071143|
1.305386|-1.174649|1.635139|0.730911|0.714096|0.907159|0.386901|-0.711773|-1.617717|0.283392|-0.792276|-1.943582|1.162082|2.049081|-0.243385|
0.155205|-0.889531|1.678649|0.379398|0.104537|0.038782|0.101964|-0.921685|-1.271521|-0.010101|-0.818170|-1.768976|1.855372|1.583898|0.097830|
0.463631|-0.384752|2.030097|0.380427|0.502236|0.186162|-0.244159|-0.504302|-0.631680|0.478706|-0.849915|-1.284513|1.520298|0.942041|-0.991325|
0.758270|-0.422087|1.597286|0.718513|-0.113830|0.198508|0.284480|-0.399072|-1.061908|1.105041|-0.604838|-1.550045|1.913289|0.819989|-1.159375|
0.325996|-0.685618|2.252546|1.285175|-0.480828|-0.324465|-0.205321|-1.182270|-0.605289|0.510025|-0.010870|-1.699474|1.703229|0.792982|-0.583981|
-0.196164|-0.168150|2.508409|1.155392|-0.298216|0.091651|-0.019301|-0.888759|-1.012336|1.148491|-0.553006|-1.286174|1.464107|1.638515|-0.570323|
0.568181|-1.216044|2.327439|0.697312|0.010073|0.237538|0.173169|-0.435596|-1.137216|0.130721|-1.032199|-1.680392|2.148469|1.696796|-0.866029|
0.656712|-0.908928|2.517639|0.900470|-0.086706|0.524804|0.697690|-0.753756|-1.264202|0.365906|-1.080320|-1.690099|1.967332|1.881887|-0.338869|
0.911845|-1.596910|1.856903|0.691034|0.140072|1.457622|0.231538|-0.359743|-1.724324|0.679745|-0.543418|-2.162797|1.210548|2.056944|-0.802967|
0.740650|-1.115321|2.282209|0.157352|0.135581|0.728436|0.209701|-0.461056|-2.269858|0.270481|-1.210215|-1.957470|1.982386|1.847953|-0.402756|
0.839682|-1.005205|1.641775|0.133618|0.590086|1.166380|0.303726|-0.529356|-1.648488|-0.027469|-0.991288|-1.738306|1.583652|1.604396|-0.530835|
1.163340|-0.984938|1.130809|-0.102252|0.621338|0.838307|0.176530|-0.811084|-1.209643|0.421542|-0.490548|-2.548092|1.497970|1.549491|-0.354234|
0.956541|-1.947593|1.761869|0.204973|0.190066|1.020565|-0.154813|-1.265610|-1.067234|0.672374|-0.482980|-2.135260|0.862536|1.396198|-1.014152|
0.300842|-1.147215|0.980602|-0.109401|-0.707745|0.946977|-0.598662|-1.589032|-1.083640|0.696827|-0.421294|-2.211652|0.846748|1.293567|-0.993896|
